//
// Created by bpiranda on 09/02/2024.
//

#ifndef VISIBLESIM_NEURALNETWORKDATA_H
#define VISIBLESIM_NEURALNETWORKDATA_H

static const int level0size=256;
static const int level1size=64;
static const int level2size=3;
static const double weight01[level0size][level1size]={{2.810458838939666748e-02,1.164157688617706299e-01,5.494478344917297363e-02,-1.061612218618392944e-01,1.446332037448883057e-02,7.500451803207397461e-02,-9.040427207946777344e-02,1.199031770229339600e-01,-1.092045903205871582e-01,-1.230741962790489197e-01,6.921887397766113281e-02,-6.335563957691192627e-02,-4.779695719480514526e-02,1.491907238960266113e-02,9.590613842010498047e-02,1.328878104686737061e-02,1.171509623527526855e-01,8.868896961212158203e-02,-1.106740906834602356e-01,-9.055989980697631836e-02,2.108821272850036621e-02,4.373686015605926514e-02,8.140635490417480469e-02,8.731564879417419434e-02,-7.425810396671295166e-02,-2.058757096529006958e-02,-9.016393125057220459e-02,1.232671141624450684e-01,3.411686420440673828e-02,-8.342255651950836182e-02,7.124719023704528809e-02,1.264382302761077881e-01,-4.148537665605545044e-02,-9.025882929563522339e-02,-5.780532211065292358e-02,7.462087273597717285e-02,5.087359249591827393e-02,2.401290833950042725e-02,-1.520776748657226562e-02,-1.204536706209182739e-01,-1.178681850433349609e-03,1.359722018241882324e-01,-1.153521463274955750e-01,1.727518439292907715e-02,5.153328180313110352e-03,-8.859345316886901855e-02,-9.410279989242553711e-02,1.398330926895141602e-02,4.287515580654144287e-02,8.678655326366424561e-02,-4.097504168748855591e-02,1.387225091457366943e-02,-7.056634128093719482e-02,-9.308189898729324341e-02,-8.133028447628021240e-02,1.183636486530303955e-01,8.845715224742889404e-02,3.502461314201354980e-02,-1.681787520647048950e-02,1.336439549922943115e-01,9.566739201545715332e-02,-7.737702131271362305e-02,6.097193062305450439e-02,7.654684782028198242e-02},
                                                {8.493661880493164062e-02,-4.634482413530349731e-02,7.521380484104156494e-02,2.749024331569671631e-02,-9.117548912763595581e-02,1.246868073940277100e-01,-1.277953386306762695e-03,4.687285423278808594e-02,7.782022655010223389e-02,-4.096420109272003174e-02,2.971813082695007324e-03,-1.150721013545989990e-01,-8.191476762294769287e-02,-7.751175761222839355e-02,8.574831485748291016e-02,-1.184735074639320374e-01,9.245207905769348145e-02,8.031144738197326660e-03,6.965023279190063477e-02,1.878044009208679199e-02,5.253136157989501953e-02,4.836951196193695068e-02,-1.166720241308212280e-01,1.034051179885864258e-02,4.916985332965850830e-02,1.253143250942230225e-01,-5.521737784147262573e-02,6.988699734210968018e-02,1.180708408355712891e-02,-6.701795756816864014e-02,1.152283847332000732e-01,-4.003286361694335938e-03,7.743731141090393066e-03,-4.146647453308105469e-02,2.154536545276641846e-02,-9.020476788282394409e-02,1.031378358602523804e-01,-1.213995143771171570e-01,9.773334860801696777e-02,1.126388758420944214e-01,-6.191173940896987915e-02,-8.277242630720138550e-02,-3.833891451358795166e-02,-5.579666048288345337e-02,-2.933658659458160400e-02,1.199367642402648926e-01,-1.210222765803337097e-01,2.246956527233123779e-02,1.117998510599136353e-01,-1.308261156082153320e-01,7.880339026451110840e-02,7.426835596561431885e-02,-3.537673503160476685e-02,9.637178480625152588e-02,-1.340578943490982056e-01,-1.092968508601188660e-01,6.394429504871368408e-02,-1.805222034454345703e-02,1.090576499700546265e-01,-2.309601753950119019e-02,1.256091892719268799e-01,4.714183509349822998e-02,-1.857168972492218018e-02,4.199773073196411133e-02},
                                                {2.426895499229431152e-02,-7.245623320341110229e-02,4.877224564552307129e-02,2.329565584659576416e-02,-3.158562630414962769e-02,1.676338911056518555e-02,1.220686137676239014e-01,2.948401868343353271e-02,5.095869302749633789e-03,4.760998487472534180e-02,1.201407611370086670e-01,5.769452452659606934e-02,-3.982244431972503662e-02,9.747825562953948975e-02,8.798609673976898193e-02,-6.267694383859634399e-02,1.083087921142578125e-01,-7.572744041681289673e-02,1.327358782291412354e-01,-7.553169131278991699e-02,-6.739293783903121948e-02,-8.310630917549133301e-03,1.277340054512023926e-01,-5.888335406780242920e-02,-1.385857164859771729e-02,-6.937244534492492676e-02,1.285266578197479248e-01,9.036414325237274170e-02,-4.237562417984008789e-02,-7.158958911895751953e-02,-1.166640967130661011e-01,-1.027774810791015625e-01,1.367021203041076660e-01,3.802096843719482422e-02,1.497401297092437744e-02,8.943387866020202637e-02,-7.299170643091201782e-02,-6.701678037643432617e-03,2.590958774089813232e-02,-6.225547194480895996e-02,-2.923404425382614136e-02,9.565322101116180420e-02,4.162311553955078125e-03,-1.470839977264404297e-02,1.016379743814468384e-01,-1.248328164219856262e-01,3.048706054687500000e-02,3.805546462535858154e-02,4.400625824928283691e-03,1.235243976116180420e-01,8.072216808795928955e-02,-1.142862588167190552e-01,2.956518530845642090e-02,3.594706952571868896e-02,-1.484483480453491211e-03,-6.513750553131103516e-02,7.990473508834838867e-02,1.337445676326751709e-01,-1.190371811389923096e-02,5.613848567008972168e-03,1.294906437397003174e-01,4.180753231048583984e-02,1.356840133666992188e-01,2.538214623928070068e-02},
                                                {-1.193985566496849060e-01,-1.196585223078727722e-01,1.090317517518997192e-01,9.879685938358306885e-02,-1.059036701917648315e-01,-1.361035108566284180e-01,9.216935932636260986e-02,-4.867995530366897583e-02,-1.292442828416824341e-01,1.146350204944610596e-01,1.147097945213317871e-01,-4.600297659635543823e-02,9.357734024524688721e-02,1.123024523258209229e-02,9.771481156349182129e-03,-5.348017811775207520e-02,8.348925411701202393e-02,2.687200903892517090e-02,8.462604880332946777e-02,3.627265989780426025e-02,1.209223568439483643e-01,-1.116165518760681152e-02,-8.909150958061218262e-02,-7.812923192977905273e-02,-7.726628333330154419e-02,4.006546735763549805e-02,3.588017821311950684e-02,-1.837290823459625244e-02,3.460146486759185791e-02,3.261461853981018066e-02,-1.125777214765548706e-01,1.239939928054809570e-01,-2.836061269044876099e-02,3.343546390533447266e-02,1.334176659584045410e-01,-9.828063845634460449e-02,-6.631686538457870483e-02,-2.916718274354934692e-02,1.301791071891784668e-01,1.268586516380310059e-01,3.745838999748229980e-02,-2.108768373727798462e-02,-6.247574090957641602e-02,-1.343232393264770508e-01,-1.143769919872283936e-01,3.706584870815277100e-02,1.303553283214569092e-01,-1.191217452287673950e-01,4.081498086452484131e-02,-3.619444370269775391e-02,3.079351782798767090e-02,-6.099919229745864868e-02,-8.445745706558227539e-02,1.324060857295989990e-01,6.359586119651794434e-02,-8.698053658008575439e-02,8.389498293399810791e-02,-1.213135868310928345e-01,-5.514186620712280273e-02,8.059789240360260010e-02,3.915357589721679688e-02,-6.325992196798324585e-02,4.909583926200866699e-02,1.149219572544097900e-01},
                                                {-4.585608839988708496e-03,6.626725196838378906e-02,-8.716475963592529297e-02,7.855208218097686768e-02,-2.802027016878128052e-02,3.879047930240631104e-02,-4.230066388845443726e-02,3.519205749034881592e-02,2.536408603191375732e-02,-6.056345254182815552e-02,4.052993655204772949e-02,7.302311062812805176e-02,4.105263948440551758e-02,-1.322617977857589722e-01,5.958591401576995850e-02,6.359288096427917480e-02,4.155720770359039307e-02,3.901822865009307861e-02,-3.386002779006958008e-02,2.001050114631652832e-02,-1.340890973806381226e-01,-2.641241252422332764e-02,1.117948889732360840e-01,3.297388553619384766e-03,6.266140937805175781e-02,-1.248769536614418030e-01,6.354328989982604980e-02,-1.105860397219657898e-01,-9.023055434226989746e-03,-8.717321604490280151e-02,1.478537917137145996e-02,6.520873308181762695e-02,5.992364883422851562e-02,8.107580244541168213e-02,-7.164998352527618408e-02,1.192369461059570312e-01,-8.735518902540206909e-02,-7.201484590768814087e-02,-5.333717912435531616e-02,-9.638363122940063477e-02,-1.136253252625465393e-01,1.262790262699127197e-01,8.983910083770751953e-05,1.269795894622802734e-01,4.293605685234069824e-03,-1.258885413408279419e-01,1.158022880554199219e-01,-3.159963339567184448e-02,-5.570815503597259521e-02,6.983658671379089355e-02,1.036064475774765015e-01,-5.495649576187133789e-02,1.801416277885437012e-03,-7.788402587175369263e-02,-1.035211384296417236e-01,-3.260492533445358276e-02,9.982225298881530762e-02,2.753320336341857910e-02,-1.082215309143066406e-01,-1.241111010313034058e-02,-6.105214357376098633e-02,7.598793506622314453e-02,-3.773938864469528198e-02,-7.356935739517211914e-02},
                                                {8.540290594100952148e-02,-1.032170355319976807e-01,9.350150823593139648e-03,4.045230150222778320e-02,-1.123589873313903809e-01,1.008466482162475586e-01,-3.371103107929229736e-02,1.722902059555053711e-03,8.369982242584228516e-05,7.743562757968902588e-02,-9.318117797374725342e-02,1.079505234956741333e-01,7.183143496513366699e-02,3.236959874629974365e-02,5.101773142814636230e-02,5.629308521747589111e-02,-1.278239786624908447e-01,-7.405393570661544800e-02,2.400548756122589111e-02,1.110239326953887939e-02,-9.751351177692413330e-02,-9.106820821762084961e-02,-5.318292975425720215e-02,1.228790581226348877e-01,4.405973851680755615e-02,-3.699425607919692993e-02,8.763413131237030029e-02,9.895345568656921387e-02,-5.010887235403060913e-02,1.932521164417266846e-02,-9.743100404739379883e-02,1.173391938209533691e-01,7.880952954292297363e-02,-1.261270046234130859e-01,2.094824612140655518e-02,-1.304759085178375244e-02,1.314806640148162842e-01,-7.386363297700881958e-02,9.378688037395477295e-02,-1.214114576578140259e-01,9.302303194999694824e-02,-1.082836240530014038e-01,1.344350874423980713e-01,-5.409305542707443237e-02,1.259807050228118896e-01,-1.346820294857025146e-01,-7.017862796783447266e-02,-1.361247897148132324e-01,-3.577874600887298584e-02,1.633776724338531494e-02,7.584901154041290283e-02,-9.034547209739685059e-02,6.200321018695831299e-02,1.674379408359527588e-02,-7.655562460422515869e-02,5.978260934352874756e-02,-4.727943986654281616e-02,-5.117302387952804565e-02,-1.272996068000793457e-01,4.594402015209197998e-02,1.197468340396881104e-01,8.640819787979125977e-02,6.798341870307922363e-02,-9.943486750125885010e-02},
                                                {-1.455329358577728271e-02,3.994542360305786133e-02,-2.445775270462036133e-02,-1.293482333421707153e-01,-5.249023437500000000e-03,-5.028388649225234985e-02,-5.701020359992980957e-03,6.301856040954589844e-02,9.463085234165191650e-02,1.339853107929229736e-01,3.249764442443847656e-02,4.609458148479461670e-02,-2.312236279249191284e-02,-6.947240978479385376e-02,8.881822228431701660e-02,-1.013715118169784546e-01,-1.263048648834228516e-01,-5.212134867906570435e-02,1.160913705825805664e-01,1.024221181869506836e-01,5.678759515285491943e-02,-7.490291446447372437e-02,1.086449325084686279e-01,2.276536822319030762e-02,7.869181036949157715e-02,-7.031032443046569824e-02,-1.149474605917930603e-01,-4.646107554435729980e-02,-8.044630289077758789e-03,-1.239586323499679565e-01,-1.243790537118911743e-01,-9.523332118988037109e-03,-5.466832220554351807e-02,-1.602634787559509277e-03,-2.564207464456558228e-02,8.754894137382507324e-03,-6.613757461309432983e-02,-1.250711083412170410e-01,-8.691194653511047363e-02,-6.923151016235351562e-02,2.721627056598663330e-02,-2.760738134384155273e-02,-3.797826170921325684e-02,-5.548983812332153320e-03,5.008767545223236084e-02,8.365206420421600342e-02,-1.733114570379257202e-02,-4.975825548171997070e-03,-5.278532207012176514e-02,-9.517282992601394653e-02,-2.078233659267425537e-02,-7.538563013076782227e-02,1.813849806785583496e-02,5.260641872882843018e-02,-2.863761782646179199e-02,-1.258283108472824097e-02,9.151716530323028564e-02,-2.292530983686447144e-02,1.060171127319335938e-01,-2.655863761901855469e-02,4.582019150257110596e-02,1.206133067607879639e-01,-1.076299026608467102e-01,-9.769231081008911133e-02},
                                                {1.854512095451354980e-02,-1.091721057891845703e-01,-7.196140289306640625e-02,-4.207955300807952881e-02,-9.863317012786865234e-03,5.668374896049499512e-02,1.285855770111083984e-01,-5.034369975328445435e-02,-6.840613484382629395e-02,1.197077929973602295e-01,1.859858632087707520e-03,-7.483758777379989624e-02,9.508353471755981445e-02,-1.092028915882110596e-01,5.354925990104675293e-02,-9.444470703601837158e-02,1.024842262268066406e-02,1.137103140354156494e-01,-1.323087662458419800e-01,1.193624436855316162e-01,7.055096328258514404e-02,4.995627701282501221e-02,1.044248342514038086e-01,-1.125679910182952881e-01,5.124916136264801025e-02,7.597966492176055908e-02,9.198108315467834473e-02,-9.957815706729888916e-02,5.725036561489105225e-02,3.722757101058959961e-04,-6.819432228803634644e-02,-8.470083773136138916e-02,2.777674794197082520e-02,4.544377326965332031e-02,1.111140698194503784e-01,-4.467562586069107056e-02,-6.469798088073730469e-02,-4.914928227663040161e-02,8.632674813270568848e-02,9.412594139575958252e-02,-2.077335864305496216e-02,1.264056265354156494e-01,8.010737597942352295e-02,2.780701220035552979e-02,1.129708290100097656e-01,-4.051028192043304443e-02,5.167007446289062500e-02,1.249545216560363770e-01,-1.530632376670837402e-02,5.083023011684417725e-02,-9.034796059131622314e-02,-7.393242418766021729e-02,-1.147451102733612061e-01,-1.874759048223495483e-02,1.144510507583618164e-01,1.327995061874389648e-01,3.085070848464965820e-02,6.803977489471435547e-02,1.336933672428131104e-01,6.375752389430999756e-02,-1.040711402893066406e-01,-4.829132556915283203e-02,-5.369489639997482300e-02,5.774214863777160645e-03},
                                                {1.522997021675109863e-02,3.474743664264678955e-02,-1.581992208957672119e-02,1.422350108623504639e-02,-3.800509870052337646e-02,8.448936045169830322e-02,3.533762693405151367e-02,-9.494247287511825562e-02,-1.739115267992019653e-02,6.442540884017944336e-02,2.813547849655151367e-02,-1.655960083007812500e-02,-1.154074519872665405e-01,2.024611830711364746e-02,9.233598411083221436e-02,-1.529738306999206543e-02,-9.093151986598968506e-02,4.892829060554504395e-02,9.563970565795898438e-02,5.847132205963134766e-02,3.047727048397064209e-02,1.614861190319061279e-02,-1.300460249185562134e-01,3.748360276222229004e-02,-7.362998276948928833e-02,-7.128953933715820312e-03,-8.398492634296417236e-02,1.089979708194732666e-02,1.040525585412979126e-01,-1.064328774809837341e-01,-3.197170794010162354e-02,5.571563541889190674e-02,1.661935448646545410e-02,-3.592921793460845947e-02,-6.706679612398147583e-02,1.009140610694885254e-01,4.516480863094329834e-02,1.924878358840942383e-02,7.423861324787139893e-02,-7.900629192590713501e-02,-5.094762891530990601e-02,1.102395355701446533e-02,1.287687420845031738e-01,8.520242571830749512e-02,-1.211698055267333984e-01,1.292753517627716064e-01,9.509748220443725586e-02,1.045434772968292236e-01,-6.639727950096130371e-02,-9.376558661460876465e-02,-8.906415104866027832e-02,1.040733605623245239e-01,-9.004580974578857422e-02,-9.600966423749923706e-02,-1.099032312631607056e-01,7.186071574687957764e-02,-3.948105871677398682e-02,-3.250456601381301880e-02,-8.355353772640228271e-02,-1.139644309878349304e-01,-8.355297893285751343e-02,1.257412135601043701e-02,-1.654811203479766846e-02,-1.132431030273437500e-01},
                                                {-1.295082867145538330e-01,-1.114005148410797119e-01,-1.204097270965576172e-01,-1.018161326646804810e-01,6.319740414619445801e-02,-1.712322235107421875e-02,7.628740370273590088e-02,8.209592103958129883e-02,-1.952785253524780273e-02,1.321140825748443604e-01,-2.038750797510147095e-02,1.136169135570526123e-01,4.622791707515716553e-02,5.107796192169189453e-02,-1.114704757928848267e-01,9.063678979873657227e-02,-1.355331987142562866e-01,-1.356394290924072266e-01,2.579601109027862549e-02,-2.710207551717758179e-02,9.493190050125122070e-02,-2.227645367383956909e-02,-2.385169267654418945e-02,-3.910499811172485352e-02,7.964405417442321777e-02,1.322999596595764160e-01,-5.238980799913406372e-02,-1.361630260944366455e-01,1.220652759075164795e-01,-1.227078661322593689e-01,-4.989320784807205200e-02,-8.809457719326019287e-02,6.337110698223114014e-02,3.912171721458435059e-02,2.997176349163055420e-02,-2.584504336118698120e-02,-3.912854194641113281e-02,6.255216896533966064e-02,1.291569471359252930e-01,-6.907375901937484741e-02,-4.582303017377853394e-02,-4.753228276968002319e-02,5.796417593955993652e-02,-2.260599285364151001e-02,-5.213176459074020386e-02,-1.172731816768646240e-01,5.525812506675720215e-02,-5.943103879690170288e-02,6.958948075771331787e-02,-1.115295961499214172e-01,6.472405791282653809e-02,2.126824855804443359e-02,1.047840565443038940e-01,8.768509328365325928e-02,1.104153692722320557e-02,5.085895955562591553e-02,4.395547509193420410e-02,1.155475378036499023e-01,3.938606381416320801e-02,-4.539816081523895264e-02,1.213066875934600830e-01,-1.065189689397811890e-01,-3.877922892570495605e-03,-1.355470716953277588e-01},
                                                {1.140998899936676025e-01,6.586723029613494873e-02,9.309937059879302979e-02,1.128418743610382080e-01,-2.696926891803741455e-02,5.627150833606719971e-02,-7.804715633392333984e-02,9.047280251979827881e-02,-9.749010205268859863e-02,-5.814567208290100098e-03,-1.284399330615997314e-01,1.051459461450576782e-01,3.782071173191070557e-02,-7.590055465698242188e-03,-1.285530179738998413e-01,-7.267186045646667480e-02,-3.547336906194686890e-02,-1.077050566673278809e-01,-9.177803993225097656e-03,-8.088831603527069092e-02,7.981806993484497070e-04,4.145602881908416748e-02,7.623447477817535400e-02,2.399416267871856689e-02,-8.356969058513641357e-02,-3.707175701856613159e-02,-3.396267443895339966e-02,2.420300245285034180e-02,-5.981773138046264648e-03,-6.365621834993362427e-02,9.830835461616516113e-02,-6.685560941696166992e-02,2.720294892787933350e-02,2.068117260932922363e-03,-2.624454349279403687e-02,1.075662374496459961e-01,-8.940488845109939575e-02,4.204750061035156250e-03,-9.534478187561035156e-02,-1.005989313125610352e-02,9.341189265251159668e-02,-1.028416007757186890e-01,-9.860694408416748047e-04,-7.562813162803649902e-02,1.005743741989135742e-01,4.987952113151550293e-02,1.209583878517150879e-01,-7.183643430471420288e-02,1.203451156616210938e-01,9.947878122329711914e-02,-3.351058065891265869e-02,9.117323160171508789e-02,-1.241303235292434692e-01,2.318866550922393799e-02,-4.989621043205261230e-02,-5.350857973098754883e-04,6.065773963928222656e-02,2.570247650146484375e-02,-4.027196019887924194e-02,1.320812106132507324e-02,-1.292309910058975220e-01,1.226260662078857422e-01,9.240490198135375977e-02,2.191635966300964355e-02},
                                                {9.020137786865234375e-02,1.320002675056457520e-01,-2.698493748903274536e-02,-9.693066775798797607e-02,3.341479599475860596e-02,-1.068366542458534241e-01,-6.021557003259658813e-02,-5.155411362648010254e-02,-7.774406671524047852e-02,-1.251684874296188354e-01,2.515104413032531738e-02,5.837468802928924561e-02,-1.209923774003982544e-01,2.488927543163299561e-02,1.186693906784057617e-01,-1.174351796507835388e-01,-1.659470051527023315e-02,6.230783462524414062e-02,-1.239780858159065247e-01,-7.658112049102783203e-02,-7.042491436004638672e-02,1.271111667156219482e-01,-3.473088145256042480e-02,-1.386438310146331787e-02,1.925192773342132568e-02,-1.887723058462142944e-02,-1.085669025778770447e-01,5.929346382617950439e-02,8.294914662837982178e-02,-4.372498393058776855e-02,8.592872321605682373e-02,9.297820925712585449e-02,7.803495228290557861e-02,-1.810219883918762207e-02,-1.680918782949447632e-02,1.932331919670104980e-02,-1.003116965293884277e-01,-1.233110800385475159e-01,8.829160034656524658e-02,-4.372394084930419922e-02,-5.030902475118637085e-02,-1.044305488467216492e-01,8.059874176979064941e-03,-1.320527493953704834e-02,-4.099224507808685303e-02,3.239859640598297119e-02,-4.349795728921890259e-02,-4.616996645927429199e-02,-9.671007096767425537e-02,-1.074152514338493347e-01,9.738937020301818848e-03,1.149215996265411377e-01,-1.282680481672286987e-01,1.204666197299957275e-01,-8.060859143733978271e-02,-7.586491852998733521e-02,7.656718790531158447e-02,-1.122741699218750000e-01,-4.240706562995910645e-02,-3.727974742650985718e-02,7.649585604667663574e-02,-9.076073765754699707e-03,3.120920062065124512e-02,-9.125997871160507202e-02},
                                                {4.328154027462005615e-02,1.005877256393432617e-01,-9.915296733379364014e-02,-2.575167268514633179e-02,4.375821352005004883e-02,-4.402092844247817993e-02,-1.163562014698982239e-01,4.205571115016937256e-02,-7.936419546604156494e-02,-1.001837551593780518e-01,6.891936063766479492e-03,-8.010795712471008301e-02,7.375094294548034668e-02,6.055036187171936035e-02,-2.458154410123825073e-02,4.399529099464416504e-02,5.116930603981018066e-02,1.654537022113800049e-02,-8.582121133804321289e-02,7.940171658992767334e-02,-7.082297652959823608e-02,-9.891915321350097656e-02,-7.116302847862243652e-02,-8.519854396581649780e-02,2.581180632114410400e-02,-3.414481133222579956e-02,1.281196475028991699e-01,-9.618207812309265137e-03,5.997914075851440430e-02,-4.896015673875808716e-02,-6.804120540618896484e-02,6.749273836612701416e-02,1.118974685668945312e-01,-8.576910942792892456e-02,3.458772599697113037e-02,-1.192043721675872803e-01,1.267250180244445801e-01,-5.488722026348114014e-02,-5.172730237245559692e-02,-4.011790454387664795e-02,-5.221018195152282715e-02,2.219013869762420654e-02,-7.496344298124313354e-02,1.073169559240341187e-01,8.590424060821533203e-02,9.500400722026824951e-02,-8.179867267608642578e-02,3.571952879428863525e-02,-4.043509811162948608e-02,-2.122604101896286011e-02,9.223403036594390869e-02,-1.072530001401901245e-01,2.668847143650054932e-02,9.734439849853515625e-02,9.117281436920166016e-02,1.077978014945983887e-01,-1.740495860576629639e-02,-1.059830188751220703e-02,-5.246423929929733276e-02,6.176945567131042480e-02,1.911881566047668457e-02,2.200260758399963379e-02,-2.569088339805603027e-02,-3.692040592432022095e-02},
                                                {2.008473873138427734e-02,-2.983269095420837402e-02,-9.215551614761352539e-02,-2.931435406208038330e-02,-8.999837934970855713e-02,7.595756649971008301e-02,6.743289530277252197e-02,-1.303629875183105469e-01,-1.293579190969467163e-01,-8.860951662063598633e-02,-1.776587218046188354e-02,-1.211104243993759155e-01,2.140249311923980713e-02,1.359457373619079590e-01,-4.234062880277633667e-02,6.161253154277801514e-02,-2.962648868560791016e-02,7.903596758842468262e-02,-2.895668148994445801e-03,-8.494950830936431885e-02,3.053730726242065430e-02,-9.837214648723602295e-02,9.361338615417480469e-02,-1.040692627429962158e-02,5.614177882671356201e-02,-4.447504132986068726e-02,8.031092584133148193e-02,-1.645663380622863770e-02,5.329059064388275146e-02,-5.125993490219116211e-02,-1.235601752996444702e-01,-6.878778338432312012e-03,-7.404635846614837646e-02,1.229446530342102051e-01,-1.164891719818115234e-01,-7.247650623321533203e-02,9.831622242927551270e-03,1.255959272384643555e-03,-5.589127540588378906e-02,7.575111091136932373e-02,9.367260336875915527e-02,9.307830035686492920e-02,4.870763421058654785e-02,-1.104417070746421814e-01,-8.964529633522033691e-02,2.602277696132659912e-02,-2.866161614656448364e-02,8.299838006496429443e-02,1.297662258148193359e-01,7.057571411132812500e-02,-7.930422574281692505e-02,-4.931613802909851074e-02,-6.017051637172698975e-02,1.538637280464172363e-02,-1.284677684307098389e-01,-5.981261283159255981e-02,1.169476509094238281e-01,1.266877353191375732e-01,4.205043613910675049e-02,8.654479682445526123e-02,-6.639254093170166016e-02,1.234985589981079102e-01,1.130670607089996338e-01,-7.189050316810607910e-03},
                                                {1.005145907402038574e-02,1.065617054700851440e-01,7.884328067302703857e-02,2.531805634498596191e-02,2.790279686450958252e-02,1.818071305751800537e-02,-2.815499901771545410e-02,2.197626233100891113e-02,8.821931481361389160e-02,-9.708808362483978271e-02,-1.001902222633361816e-01,-7.027516514062881470e-02,-5.534741282463073730e-02,6.327871978282928467e-02,1.222345829010009766e-01,-9.731122851371765137e-02,1.055922508239746094e-01,9.846653044223785400e-02,1.031361669301986694e-01,7.664430141448974609e-02,1.324415802955627441e-01,1.295660138130187988e-01,1.308815479278564453e-01,-4.742977768182754517e-02,-5.489362031221389771e-02,3.763498365879058838e-02,1.273964643478393555e-01,5.961839854717254639e-02,9.058836102485656738e-02,-2.425104379653930664e-03,1.043193936347961426e-01,-9.057651460170745850e-02,1.774771511554718018e-02,5.486397445201873779e-02,-1.298397630453109741e-01,-8.964608609676361084e-02,-7.257287949323654175e-02,-9.203380346298217773e-02,-4.342629760503768921e-02,-3.229820728302001953e-02,-9.123706072568893433e-02,1.059529334306716919e-01,-1.099677085876464844e-01,6.505161523818969727e-02,-9.465658664703369141e-02,1.057639718055725098e-02,-1.220672726631164551e-01,2.787666022777557373e-02,-4.136706888675689697e-02,-1.183561459183692932e-01,3.250041604042053223e-02,4.345923662185668945e-02,-7.343997806310653687e-02,-1.358723640441894531e-01,8.027981221675872803e-02,4.724165797233581543e-02,1.035474836826324463e-01,8.139018714427947998e-02,6.386293470859527588e-02,-1.068688109517097473e-01,8.338020741939544678e-02,7.210902869701385498e-02,-1.264496445655822754e-01,7.997658848762512207e-02},
                                                {-9.417086839675903320e-02,-5.520197004079818726e-02,-2.470070868730545044e-02,-7.074916362762451172e-02,-5.387487262487411499e-02,-6.592169404029846191e-03,2.787850797176361084e-02,7.550871372222900391e-02,-6.568054854869842529e-02,8.844859898090362549e-02,8.498924970626831055e-02,1.301570832729339600e-01,5.173562467098236084e-02,1.225492358207702637e-02,1.198675930500030518e-01,-1.986058801412582397e-02,-3.469092398881912231e-02,-6.487241387367248535e-02,1.140466928482055664e-01,-1.333948671817779541e-01,-1.101783812046051025e-01,-6.246653944253921509e-02,1.053445041179656982e-01,1.320596337318420410e-01,-1.134741380810737610e-01,-1.133115589618682861e-01,1.822596788406372070e-02,-3.924946486949920654e-02,-1.066879481077194214e-01,-1.293122470378875732e-01,-2.291375398635864258e-02,1.234790682792663574e-01,1.143488883972167969e-01,-3.716398775577545166e-02,-1.003375872969627380e-01,-7.814532518386840820e-02,7.881605625152587891e-02,-1.093488261103630066e-01,3.310954570770263672e-02,6.311725080013275146e-02,-2.537607401609420776e-02,1.338917016983032227e-01,6.803274154663085938e-04,3.744536638259887695e-02,5.766683816909790039e-02,-1.731861382722854614e-02,-1.347308754920959473e-01,1.332952380180358887e-01,5.127285420894622803e-02,1.054358035326004028e-01,9.267306327819824219e-02,-6.578192114830017090e-02,4.952396452426910400e-02,-2.781011909246444702e-02,5.873718857765197754e-02,-1.135129258036613464e-01,3.844070434570312500e-02,1.215043365955352783e-01,-4.448153823614120483e-02,7.716135680675506592e-02,1.315102577209472656e-01,-3.344809263944625854e-02,-7.235430926084518433e-02,-9.734711050987243652e-02},
                                                {1.041636317968368530e-01,-8.866641670465469360e-02,-1.312928646802902222e-01,-4.984688013792037964e-02,-2.367585897445678711e-03,3.173947334289550781e-04,-3.068574517965316772e-02,1.044730544090270996e-01,-1.585981994867324829e-02,5.355732142925262451e-02,-6.367750465869903564e-02,7.869014143943786621e-02,1.342484354972839355e-01,-1.150116771459579468e-01,-3.726839274168014526e-02,7.482315599918365479e-02,1.019887626171112061e-01,1.158040463924407959e-01,8.396890759468078613e-02,8.962956070899963379e-02,-5.285025388002395630e-02,-2.033458650112152100e-02,1.168074011802673340e-01,-6.492669880390167236e-02,-8.607197552919387817e-02,-1.124358400702476501e-01,1.266141831874847412e-01,4.883900284767150879e-02,-4.043986648321151733e-02,1.243069767951965332e-02,1.104573160409927368e-01,-1.123816817998886108e-01,-5.867477506399154663e-02,9.243884682655334473e-02,2.294652163982391357e-02,5.077388882637023926e-02,-1.381325721740722656e-02,-8.724144846200942993e-02,-4.141551256179809570e-02,-3.638927638530731201e-02,5.412931740283966064e-02,1.115312278270721436e-01,3.726251423358917236e-02,-1.293489336967468262e-02,7.787507772445678711e-02,1.249365210533142090e-01,1.240973472595214844e-01,-3.765963017940521240e-02,-9.780412912368774414e-02,-8.785860240459442139e-02,3.276930749416351318e-02,-9.542916715145111084e-02,-1.078374683856964111e-01,-2.723298966884613037e-02,8.458821475505828857e-02,3.932052850723266602e-02,-6.041409820318222046e-02,-6.406711041927337646e-02,-1.263667196035385132e-01,-1.365585029125213623e-01,-9.726767241954803467e-02,-1.073874682188034058e-01,8.890891075134277344e-02,-6.823284178972244263e-02},
                                                {1.353261172771453857e-01,-7.896959781646728516e-02,-9.513864666223526001e-02,-1.223602741956710815e-01,7.671213150024414062e-02,6.484760344028472900e-02,4.888562858104705811e-02,2.972096204757690430e-03,-1.064536422491073608e-01,4.487037658691406250e-03,-4.587590694427490234e-03,2.403026819229125977e-02,-7.156461477279663086e-02,-8.961790800094604492e-02,-3.709304332733154297e-02,6.240810453891754150e-02,6.767660379409790039e-04,-1.099600717425346375e-01,-1.131215840578079224e-01,2.418057620525360107e-02,3.782038390636444092e-02,9.510433673858642578e-02,-9.424960613250732422e-02,-2.108445018529891968e-02,8.889886736869812012e-02,-1.168492957949638367e-01,1.150742173194885254e-03,9.830296039581298828e-05,-3.731869906187057495e-02,-3.378086537122726440e-02,-1.322837918996810913e-01,9.178519248962402344e-03,-7.402569055557250977e-03,-2.047908306121826172e-02,-1.086329445242881775e-01,-1.535402238368988037e-02,-1.017000675201416016e-01,-1.214731335639953613e-01,2.572791278362274170e-02,3.424675762653350830e-02,-1.154982075095176697e-01,4.647886753082275391e-02,-7.465202361345291138e-02,6.971749663352966309e-02,1.016138494014739990e-01,-1.240882053971290588e-01,2.389779686927795410e-02,2.996186912059783936e-02,9.646371006965637207e-02,6.587401032447814941e-02,1.248564720153808594e-01,-1.082068383693695068e-01,1.145747005939483643e-01,6.536602973937988281e-02,-7.737894356250762939e-02,-4.049846529960632324e-02,3.935575485229492188e-02,6.479960680007934570e-02,1.014561951160430908e-02,-1.475246995687484741e-02,1.138639450073242188e-02,9.967586398124694824e-02,-2.744264900684356689e-02,1.367281377315521240e-01},
                                                {9.458780288696289062e-02,-1.212954968214035034e-01,-7.943660020828247070e-03,1.180885732173919678e-01,-6.442005932331085205e-02,6.192107498645782471e-02,4.519774019718170166e-02,-8.969766646623611450e-02,-4.246103018522262573e-02,7.530498504638671875e-02,-4.097729921340942383e-03,-5.936920642852783203e-03,-8.425165712833404541e-02,3.403331339359283447e-02,-5.132538825273513794e-02,-1.370202749967575073e-02,7.324974238872528076e-02,9.526816010475158691e-02,9.948100149631500244e-02,1.334667801856994629e-01,-2.052534371614456177e-02,-3.978376090526580811e-02,-3.093683719635009766e-02,4.678058624267578125e-02,4.028312861919403076e-02,-1.826079934835433960e-02,5.169409513473510742e-02,-4.364682734012603760e-02,-6.375605612993240356e-02,-1.176575720310211182e-01,-8.382482826709747314e-02,-7.656424492597579956e-02,-1.349442452192306519e-01,-7.320237159729003906e-02,4.290901124477386475e-02,-5.506299436092376709e-02,3.542403876781463623e-02,7.369551062583923340e-02,1.057402789592742920e-01,-1.289048790931701660e-01,-1.119644939899444580e-02,-6.611207127571105957e-02,-4.907020926475524902e-02,3.477945923805236816e-02,9.253025054931640625e-03,8.419504761695861816e-02,1.083301454782485962e-01,6.731435656547546387e-02,8.648955821990966797e-02,7.158428430557250977e-03,1.076899468898773193e-01,1.357503235340118408e-01,-8.534163236618041992e-03,-8.559203147888183594e-02,1.705633103847503662e-02,-9.678162634372711182e-02,1.037350445985794067e-01,6.521166861057281494e-02,1.178016960620880127e-01,-1.047419011592864990e-01,-3.434509783983230591e-02,-1.083478406071662903e-01,-1.153457462787628174e-01,-1.254434138536453247e-01},
                                                {-2.501636743545532227e-02,4.444050788879394531e-02,8.619047701358795166e-02,1.125914752483367920e-01,-1.198895648121833801e-01,2.372868359088897705e-02,-7.516878843307495117e-02,-5.903007090091705322e-02,-6.341574341058731079e-02,1.002730727195739746e-01,9.869793057441711426e-02,-7.350282371044158936e-02,1.265136897563934326e-01,-2.897329628467559814e-02,7.898873090744018555e-02,1.243169605731964111e-01,-8.713874220848083496e-02,1.325038075447082520e-01,3.533014655113220215e-02,-9.016127884387969971e-02,1.118044555187225342e-01,-6.634458899497985840e-02,1.352192461490631104e-01,1.229736804962158203e-01,3.588892519474029541e-02,1.912130415439605713e-02,-2.473583817481994629e-02,-4.930467903614044189e-02,-1.066494584083557129e-01,4.624949395656585693e-02,1.072336733341217041e-01,-1.194990128278732300e-01,5.049824714660644531e-02,-1.340515166521072388e-01,4.719123244285583496e-03,2.575421333312988281e-02,4.210910201072692871e-02,9.946674108505249023e-03,-1.142460703849792480e-01,1.351760327816009521e-01,1.295959651470184326e-01,9.495647251605987549e-02,1.086967736482620239e-01,-1.474039256572723389e-02,-9.594514966011047363e-02,-8.732691407203674316e-02,-3.334552049636840820e-03,-6.750008463859558105e-02,1.081219315528869629e-02,-1.227706819772720337e-01,6.331098079681396484e-02,1.106614470481872559e-01,8.745707571506500244e-02,-1.014389246702194214e-01,-7.566675543785095215e-02,3.670732676982879639e-02,7.323701679706573486e-02,-4.973083734512329102e-03,3.071360290050506592e-02,1.242880821228027344e-01,7.254199683666229248e-02,-7.073979079723358154e-02,-8.072566986083984375e-02,-1.318434625864028931e-02},
                                                {1.152604520320892334e-01,9.599748253822326660e-02,1.255166530609130859e-01,1.194814443588256836e-01,5.906014144420623779e-02,-8.738604187965393066e-02,1.175074875354766846e-01,-3.548280894756317139e-02,-8.998061716556549072e-02,1.084221452474594116e-01,-1.129814982414245605e-01,-4.136406630277633667e-02,4.686322808265686035e-02,1.066480129957199097e-01,8.358778059482574463e-02,1.167889237403869629e-01,-5.246809124946594238e-02,-7.494306564331054688e-02,2.081884443759918213e-02,1.096889674663543701e-01,-7.405330985784530640e-02,8.890992403030395508e-02,1.044418513774871826e-01,-9.671577811241149902e-02,-9.562152624130249023e-02,8.400082588195800781e-02,-1.222155168652534485e-01,-6.996694207191467285e-02,3.544412553310394287e-02,-9.581774473190307617e-03,-3.835458308458328247e-02,-8.592113852500915527e-03,4.682558774948120117e-02,5.137175321578979492e-02,4.196521639823913574e-02,-1.477744430303573608e-02,1.733773946762084961e-02,-1.177099347114562988e-01,8.580207824707031250e-03,1.212302446365356445e-01,6.649139523506164551e-02,-8.518783748149871826e-02,6.621657311916351318e-02,-1.292672008275985718e-01,1.368123292922973633e-01,-9.662055224180221558e-02,4.591558873653411865e-02,3.711037337779998779e-02,1.070307344198226929e-01,-1.102165430784225464e-01,-7.549790292978286743e-02,-2.787537872791290283e-02,5.645032227039337158e-02,-9.409204125404357910e-03,-1.792913675308227539e-02,5.942949652671813965e-02,-5.320486426353454590e-02,-5.113045126199722290e-02,1.270267963409423828e-01,-6.419322639703750610e-02,-4.883179068565368652e-02,-1.343162953853607178e-01,7.578773796558380127e-02,-9.050257503986358643e-02},
                                                {-5.018944293260574341e-02,-6.798084080219268799e-02,-1.096551120281219482e-02,9.438826143741607666e-02,7.947535812854766846e-02,-8.972002565860748291e-02,9.962412714958190918e-02,1.491303741931915283e-02,6.734812259674072266e-02,9.756003320217132568e-02,-7.704487442970275879e-02,-1.347928643226623535e-01,-3.645633161067962646e-02,3.290536999702453613e-02,-7.168377190828323364e-02,-1.080437004566192627e-02,7.745701074600219727e-02,9.063822031021118164e-02,-4.976192861795425415e-02,-7.284881174564361572e-02,-8.661978691816329956e-02,-1.990149170160293579e-02,-4.096867889165878296e-02,-1.190759763121604919e-01,9.460160136222839355e-02,-8.893568813800811768e-02,1.283393800258636475e-01,-8.468598872423171997e-02,1.111708134412765503e-01,6.923379004001617432e-02,-3.761650621891021729e-02,1.111844629049301147e-01,5.410663783550262451e-02,1.190356612205505371e-01,-3.867997229099273682e-02,-1.101277768611907959e-01,-1.100240945816040039e-01,-1.102700829505920410e-01,1.714740693569183350e-02,1.260732114315032959e-02,-5.125346779823303223e-02,7.196436822414398193e-02,-1.034891754388809204e-01,1.079502701759338379e-02,1.326386928558349609e-01,1.740038394927978516e-03,-4.654990881681442261e-02,-3.650040924549102783e-02,2.295596897602081299e-02,6.149810552597045898e-02,2.833203971385955811e-02,6.782084703445434570e-02,6.921394169330596924e-02,1.465573906898498535e-02,-5.702251940965652466e-02,1.282743513584136963e-01,-4.966186732053756714e-02,3.932537138462066650e-02,-1.151168271899223328e-01,1.052371859550476074e-01,-5.790515989065170288e-02,-1.964700967073440552e-02,-1.453503966331481934e-03,-1.031302958726882935e-01},
                                                {-1.727695018053054810e-02,-3.680597990751266479e-02,-6.805625557899475098e-02,-1.341701894998550415e-01,-2.621264755725860596e-02,-5.556816607713699341e-02,-1.088190972805023193e-01,-9.830127656459808350e-02,-1.161116063594818115e-01,6.616511940956115723e-02,2.107295393943786621e-02,6.670030951499938965e-02,-1.170984283089637756e-01,-1.182019561529159546e-01,-6.075578182935714722e-02,-9.817336499691009521e-02,-1.053845882415771484e-02,6.570637226104736328e-02,1.642236113548278809e-02,-2.222565561532974243e-02,-1.101517751812934875e-01,-4.517897218465805054e-02,1.199202537536621094e-01,8.502469956874847412e-02,-1.594796776771545410e-02,-1.009667515754699707e-01,-6.438032537698745728e-02,4.109968245029449463e-02,4.922682046890258789e-02,9.256817400455474854e-02,-8.677649497985839844e-02,2.788628637790679932e-02,-9.049578011035919189e-02,3.419806063175201416e-02,1.313988268375396729e-01,5.801905691623687744e-02,5.717863142490386963e-02,-6.154488772153854370e-02,6.452977657318115234e-02,6.815694272518157959e-02,2.842530608177185059e-03,1.167064905166625977e-01,2.243590354919433594e-02,-2.601718902587890625e-02,-8.927145600318908691e-02,2.502684295177459717e-02,1.217562556266784668e-01,1.148197948932647705e-01,4.295572638511657715e-03,7.677559554576873779e-02,-1.040259599685668945e-01,3.741180896759033203e-02,-6.276237964630126953e-02,1.795320212841033936e-02,-8.366793394088745117e-03,-8.161757886409759521e-02,1.157862842082977295e-01,3.609663248062133789e-02,7.037441432476043701e-02,-3.793030977249145508e-03,1.661716401576995850e-02,-2.168469876050949097e-02,5.600860714912414551e-02,-9.872405230998992920e-02},
                                                {-1.138439774513244629e-02,-1.305230557918548584e-01,-8.383749425411224365e-02,5.214567482471466064e-02,8.899569511413574219e-04,1.155849397182464600e-01,-2.349659800529479980e-02,-4.593285173177719116e-02,-4.149409383535385132e-02,-9.780056774616241455e-02,-9.150767326354980469e-02,-1.249972209334373474e-01,1.244449615478515625e-01,5.401025712490081787e-02,8.122512698173522949e-02,-3.628983348608016968e-02,-5.887248367071151733e-02,3.140684962272644043e-02,5.554367601871490479e-02,5.953097343444824219e-02,7.714293897151947021e-02,-1.901572197675704956e-02,-5.606234073638916016e-03,-3.066048026084899902e-02,1.270842552185058594e-02,-3.697486221790313721e-02,9.541973471641540527e-03,1.230747401714324951e-01,-3.482252359390258789e-02,1.235815882682800293e-02,6.671506166458129883e-02,3.477367758750915527e-02,1.148256063461303711e-01,-8.424140512943267822e-02,8.107393980026245117e-02,9.131431579589843750e-05,7.047815620899200439e-02,-2.493641525506973267e-02,5.472567677497863770e-02,-4.849329590797424316e-03,-1.074960529804229736e-01,9.375543892383575439e-02,6.886254251003265381e-02,1.303047239780426025e-01,1.243425905704498291e-01,8.472180366516113281e-02,6.582573056221008301e-03,-8.668390661478042603e-02,1.037287414073944092e-01,-1.157802343368530273e-02,-6.656664609909057617e-02,1.326138973236083984e-01,-1.840133965015411377e-02,-1.038294881582260132e-01,4.910129308700561523e-02,7.365107536315917969e-02,4.388093948364257812e-04,-1.059510111808776855e-01,-7.508347928524017334e-02,1.188809871673583984e-01,2.551494538784027100e-02,-1.240876838564872742e-01,1.040183156728744507e-01,5.110926926136016846e-02},
                                                {2.684015035629272461e-02,-4.794324189424514771e-02,9.128074347972869873e-02,7.781259715557098389e-02,1.271079182624816895e-01,-3.544692695140838623e-02,-6.608546525239944458e-02,-1.009277105331420898e-01,1.343739032745361328e-01,9.713144600391387939e-02,1.275645792484283447e-01,-1.123582422733306885e-01,2.119623124599456787e-02,5.353870987892150879e-02,-1.096339300274848938e-01,2.963462471961975098e-02,-1.226004213094711304e-01,-7.818956673145294189e-02,1.132656037807464600e-01,1.329036951065063477e-01,-7.612318545579910278e-02,-6.859760731458663940e-02,8.579829335212707520e-02,-3.226973861455917358e-02,-1.304995566606521606e-01,1.013044565916061401e-01,-5.885899811983108521e-02,-4.741145670413970947e-02,1.117757856845855713e-01,-7.632517069578170776e-02,-7.020653784275054932e-02,9.217512607574462891e-02,-9.172794222831726074e-02,-5.570972710847854614e-02,-1.273402869701385498e-01,-1.049694865942001343e-01,8.687877655029296875e-02,-9.466911852359771729e-02,-4.616686701774597168e-02,-5.043605715036392212e-02,-4.587274789810180664e-02,9.962086379528045654e-02,-1.182894781231880188e-01,8.112396299839019775e-02,8.253991603851318359e-03,1.075823307037353516e-01,-1.612915843725204468e-02,4.894670844078063965e-02,-4.833928495645523071e-02,1.877285540103912354e-02,-3.419857472181320190e-02,4.668164253234863281e-02,1.253646612167358398e-01,1.218854486942291260e-01,5.837137997150421143e-02,2.447198331356048584e-02,9.203898906707763672e-02,4.647214710712432861e-02,-5.178077518939971924e-02,3.161771595478057861e-02,-4.679074883460998535e-02,-1.140500977635383606e-01,5.447798967361450195e-02,2.263142168521881104e-02},
                                                {-9.246516227722167969e-02,1.062703281641006470e-01,6.283003091812133789e-02,5.458846688270568848e-02,-1.051586866378784180e-02,-1.187652722001075745e-01,5.011735856533050537e-02,-1.185108721256256104e-02,9.562048316001892090e-02,-2.950569987297058105e-02,1.186825335025787354e-01,1.037851870059967041e-01,-1.500219106674194336e-03,-9.893912822008132935e-02,1.065682321786880493e-01,-1.037331148982048035e-01,-1.157884076237678528e-01,-2.950847148895263672e-02,1.011134684085845947e-01,7.141098380088806152e-03,-9.572789072990417480e-02,1.302724480628967285e-01,-1.039535850286483765e-01,-1.114955842494964600e-01,1.904128491878509521e-02,1.029444336891174316e-01,-1.167153492569923401e-01,-7.341082394123077393e-02,5.020533502101898193e-02,-1.688767224550247192e-02,9.127457439899444580e-02,2.278397977352142334e-02,1.141951978206634521e-01,1.255636215209960938e-01,1.017744839191436768e-02,3.056694567203521729e-02,-2.471464872360229492e-02,1.078482717275619507e-01,-2.998714148998260498e-02,-4.435630887746810913e-02,4.951548576354980469e-02,-1.207147464156150818e-01,-9.470231831073760986e-02,-9.780938923358917236e-02,1.193248331546783447e-01,-3.916324675083160400e-02,1.282970607280731201e-02,9.712278842926025391e-02,-1.066644713282585144e-01,6.956362724304199219e-02,-7.152112573385238647e-02,-1.432744413614273071e-02,-9.062319993972778320e-02,-7.750914245843887329e-02,-3.814423829317092896e-02,-6.470238417387008667e-02,-7.853089272975921631e-02,-7.512615621089935303e-02,-1.186205819249153137e-01,9.763589501380920410e-02,5.815845727920532227e-02,-7.342146337032318115e-02,1.285164058208465576e-02,1.634465157985687256e-02},
                                                {-3.555730730295181274e-02,-3.754699975252151489e-02,1.085564494132995605e-01,-5.767069011926651001e-02,7.271613180637359619e-02,1.328596472740173340e-01,1.066872626543045044e-01,1.631498336791992188e-02,-1.724243164062500000e-03,-1.356921494007110596e-01,-5.261725187301635742e-02,4.771292209625244141e-03,-8.663536608219146729e-02,1.124037504196166992e-01,8.504235744476318359e-02,2.443042397499084473e-02,6.170563399791717529e-02,1.318793892860412598e-01,-5.475595593452453613e-03,-1.224969998002052307e-01,-2.472365647554397583e-02,1.115465760231018066e-01,-2.756856381893157959e-02,3.342151641845703125e-03,6.397908926010131836e-02,7.540328800678253174e-02,-6.683258712291717529e-02,-2.731587737798690796e-02,-5.185847729444503784e-02,3.183315694332122803e-02,-5.102878808975219727e-02,-2.920723706483840942e-02,3.705222904682159424e-02,-6.533798575401306152e-02,1.225102841854095459e-01,-4.118911176919937134e-02,6.369826197624206543e-02,8.804972469806671143e-02,-1.322852373123168945e-01,-1.302043199539184570e-01,-5.320394784212112427e-02,9.985738992691040039e-02,-8.445324748754501343e-02,5.305776000022888184e-02,-2.191527932882308960e-02,-3.142503648996353149e-02,-1.111489981412887573e-01,9.313224256038665771e-02,-1.021265015006065369e-01,1.127840876579284668e-01,-1.123776659369468689e-01,2.545331418514251709e-02,-1.152980327606201172e-02,7.177405059337615967e-02,3.377580642700195312e-02,-4.830670356750488281e-02,1.047584563493728638e-01,-2.665321528911590576e-02,7.545706629753112793e-02,1.254859268665313721e-01,-1.229881420731544495e-01,-1.178781315684318542e-01,3.212785720825195312e-02,5.160713195800781250e-02},
                                                {2.774107456207275391e-02,-1.240376979112625122e-01,1.030629724264144897e-01,7.027885317802429199e-02,-5.357712507247924805e-04,9.148357808589935303e-02,6.045183539390563965e-02,-5.404940247535705566e-02,6.412221491336822510e-02,9.705184400081634521e-02,3.060178458690643311e-02,1.945939660072326660e-02,-3.267090022563934326e-02,8.719116449356079102e-03,-1.111733242869377136e-01,3.109961748123168945e-02,2.631692588329315186e-02,1.354878544807434082e-01,6.965115666389465332e-02,1.278381049633026123e-02,3.131841123104095459e-02,8.399695158004760742e-03,7.893352210521697998e-02,1.124262064695358276e-01,-8.046501874923706055e-02,-1.113586574792861938e-01,-3.949721902608871460e-02,8.582046627998352051e-02,-2.390066534280776978e-02,-1.198032796382904053e-01,-1.240413561463356018e-01,8.049622178077697754e-03,2.119065821170806885e-02,8.398854732513427734e-02,7.074785232543945312e-02,-7.509677112102508545e-02,8.836239576339721680e-04,-1.342751532793045044e-01,-2.040278911590576172e-02,7.516703009605407715e-02,9.822402894496917725e-02,-1.442479342222213745e-02,1.319576799869537354e-01,-1.033982262015342712e-01,1.167334318161010742e-01,-1.234667450189590454e-01,-1.285358816385269165e-01,7.145580649375915527e-02,-4.482083767652511597e-02,-2.392955869436264038e-02,7.121105492115020752e-02,-8.810789883136749268e-02,-8.779487758874893188e-02,-1.155498251318931580e-01,4.133373498916625977e-03,-1.016645804047584534e-01,4.503558576107025146e-02,-8.710058033466339111e-02,-1.082168966531753540e-01,1.013881862163543701e-01,3.325097262859344482e-02,-7.112234830856323242e-03,-1.011751741170883179e-01,-9.647275507450103760e-02},
                                                {1.373076438903808594e-02,-8.801155537366867065e-02,4.276108741760253906e-02,1.319225728511810303e-01,-7.528540492057800293e-02,-4.277123510837554932e-02,-4.844591021537780762e-02,6.788541376590728760e-02,-5.883003771305084229e-02,4.924888908863067627e-02,7.578071951866149902e-02,-6.125749647617340088e-02,5.070310831069946289e-02,4.865598678588867188e-02,-1.597029715776443481e-02,-1.012317165732383728e-01,-9.475645422935485840e-02,-1.217662692070007324e-01,-5.168361961841583252e-02,9.013019502162933350e-02,-1.363767534494400024e-01,-1.175593659281730652e-01,3.179834783077239990e-02,1.162331104278564453e-01,-9.752169996500015259e-02,3.648634254932403564e-02,-1.149971485137939453e-01,6.525897979736328125e-02,-9.357048571109771729e-02,1.069019436836242676e-01,-8.837133646011352539e-04,-1.282853782176971436e-01,-7.873222231864929199e-02,-7.815443724393844604e-02,1.132574379444122314e-01,9.066635370254516602e-02,-2.007181197404861450e-02,2.756592631340026855e-02,7.317681610584259033e-02,-1.095017045736312866e-01,9.092499315738677979e-02,4.180596768856048584e-02,4.976950585842132568e-02,-1.301973760128021240e-01,9.973838925361633301e-02,-1.108039915561676025e-01,9.691071510314941406e-02,-3.433017432689666748e-02,-1.071872487664222717e-01,1.809060573577880859e-03,-7.022818177938461304e-02,4.647913575172424316e-02,1.210029721260070801e-01,-5.018441379070281982e-02,6.733727455139160156e-02,-4.518119245767593384e-02,3.461217880249023438e-02,1.063883155584335327e-01,-3.156528621912002563e-02,-1.313908100128173828e-01,1.731291413307189941e-03,-6.894908100366592407e-02,-9.301543235778808594e-02,-6.626923382282257080e-02},
                                                {7.920606434345245361e-02,1.941315829753875732e-02,-1.039837449789047241e-01,7.169307768344879150e-02,-1.213446259498596191e-02,4.374982416629791260e-02,1.178103685379028320e-01,9.750507771968841553e-02,1.300599277019500732e-01,-7.384420931339263916e-02,-8.595007658004760742e-02,-5.840318650007247925e-02,-6.095767021179199219e-04,9.008492529392242432e-02,-1.264297366142272949e-01,-6.938716769218444824e-02,-1.227825284004211426e-01,2.269257605075836182e-02,-4.453285783529281616e-02,5.383929610252380371e-02,1.043913066387176514e-01,3.746238350868225098e-02,1.213394701480865479e-01,-5.747558921575546265e-02,-1.274112910032272339e-01,7.208392024040222168e-02,-3.506946563720703125e-02,5.585689842700958252e-02,1.277963221073150635e-01,-4.975125938653945923e-02,1.107464283704757690e-01,-1.294381320476531982e-01,-1.202095001935958862e-01,9.420174360275268555e-02,-5.202523618936538696e-02,-8.694259822368621826e-02,1.666916906833648682e-02,5.821193754673004150e-02,-5.823430418968200684e-02,-1.141339540481567383e-03,1.113736778497695923e-01,8.717893064022064209e-02,-7.246527820825576782e-02,-5.115575343370437622e-02,1.080165803432464600e-02,-6.463797390460968018e-02,-1.264835596084594727e-01,1.359695792198181152e-01,-2.140475064516067505e-02,-3.445763140916824341e-02,-7.122939825057983398e-02,1.259409189224243164e-01,-1.086593270301818848e-01,1.368641853332519531e-02,-1.722546666860580444e-02,-1.085382699966430664e-01,-1.173071414232254028e-01,2.241493761539459229e-02,4.706001281738281250e-02,-1.080711558461189270e-01,6.645698845386505127e-02,-2.696763724088668823e-02,-4.013686627149581909e-02,9.457911550998687744e-02},
                                                {-5.917653441429138184e-03,-1.087949723005294800e-01,-3.795482218265533447e-02,-1.306402832269668579e-01,2.894678711891174316e-02,5.302961170673370361e-02,-1.097219139337539673e-01,6.218282878398895264e-02,-5.598581582307815552e-02,-9.481713175773620605e-03,3.734987974166870117e-02,1.205506920814514160e-01,-8.628042042255401611e-02,-3.228475898504257202e-02,-1.075507700443267822e-01,1.123493313789367676e-01,-4.569309204816818237e-02,-1.028343141078948975e-01,1.345419883728027344e-01,1.667095720767974854e-02,-6.911604106426239014e-02,-7.612635195255279541e-02,1.341148018836975098e-01,8.019489049911499023e-02,-9.125214070081710815e-02,1.018168479204177856e-01,-1.285894811153411865e-01,-1.336590796709060669e-01,2.507846057415008545e-02,-2.876252681016921997e-02,8.436819911003112793e-02,-8.704997599124908447e-02,9.975118935108184814e-02,-7.140555977821350098e-02,1.367905437946319580e-01,5.939447879791259766e-02,-7.999613881111145020e-03,7.136619091033935547e-02,-6.977215409278869629e-03,-1.228728294372558594e-01,4.385925829410552979e-02,-4.203514754772186279e-02,1.025239378213882446e-01,1.214052736759185791e-02,1.176322698593139648e-01,-9.318160265684127808e-02,1.092147380113601685e-01,-3.813087940216064453e-03,2.837944030761718750e-02,1.306181252002716064e-01,5.890437960624694824e-02,4.834927618503570557e-02,1.056116819381713867e-01,1.100513786077499390e-01,5.501297116279602051e-02,1.362845003604888916e-01,-3.480055183172225952e-02,1.242309510707855225e-01,-4.450370371341705322e-02,1.148558557033538818e-01,2.570074796676635742e-02,3.835546970367431641e-02,1.321259737014770508e-01,-1.025441139936447144e-01},
                                                {5.853468179702758789e-02,4.523441195487976074e-02,1.264079809188842773e-01,-6.832093000411987305e-03,8.034072816371917725e-02,1.130973398685455322e-01,-1.284216493368148804e-01,-1.184644028544425964e-01,-4.613604396581649780e-02,-8.491039276123046875e-03,7.084752619266510010e-02,-1.855948567390441895e-02,5.584900081157684326e-02,9.296189248561859131e-02,-7.956579327583312988e-03,-9.216517210006713867e-04,9.730835258960723877e-02,9.816168248653411865e-02,8.205501735210418701e-02,-1.214958503842353821e-01,-1.069644987583160400e-01,-9.510269761085510254e-02,-1.317846924066543579e-01,5.765371024608612061e-02,8.828000724315643311e-02,1.424027979373931885e-02,1.213989257812500000e-01,1.013558357954025269e-01,1.352533102035522461e-01,-4.273252189159393311e-02,7.913874089717864990e-02,-1.275369226932525635e-01,1.560784876346588135e-02,-1.334562450647354126e-01,7.163013517856597900e-02,9.955540299415588379e-03,1.324592530727386475e-01,-1.346075981855392456e-01,-1.141926646232604980e-01,-1.097340583801269531e-01,7.644054293632507324e-02,1.108536720275878906e-01,-1.197064518928527832e-01,-1.058687716722488403e-01,7.476040720939636230e-02,-2.202484011650085449e-02,-1.258820146322250366e-01,9.206272661685943604e-02,-1.248848885297775269e-01,6.108602881431579590e-02,-9.259866178035736084e-02,-8.487106114625930786e-02,-1.303116381168365479e-01,-6.933395564556121826e-02,2.113606035709381104e-02,1.032563149929046631e-01,-1.116124913096427917e-01,-1.458153128623962402e-02,5.907081067562103271e-02,4.440218210220336914e-02,7.593467831611633301e-02,-9.505601972341537476e-02,-7.590213418006896973e-02,1.974658668041229248e-02},
                                                {-3.529874235391616821e-02,-2.707363665103912354e-02,1.552513241767883301e-02,8.077163994312286377e-02,-1.330491006374359131e-01,1.027592569589614868e-01,1.354920864105224609e-02,-1.471702009439468384e-02,1.008413583040237427e-01,1.719211041927337646e-02,1.095374226570129395e-01,-1.108723878860473633e-01,-1.216174960136413574e-01,-2.508639544248580933e-02,5.340991914272308350e-02,4.317484796047210693e-02,-1.328876912593841553e-01,-5.361726135015487671e-02,-8.220519125461578369e-02,1.696282625198364258e-02,1.201782226562500000e-01,6.205858290195465088e-02,4.918962717056274414e-03,-1.245497688651084900e-01,3.399252891540527344e-03,-3.944788873195648193e-02,-1.232456862926483154e-01,-3.337956964969635010e-02,4.932250082492828369e-02,6.927832961082458496e-02,-7.450070977210998535e-02,1.278126239776611328e-02,-9.882796555757522583e-02,7.268436253070831299e-02,9.729143977165222168e-02,-6.194973737001419067e-02,8.729381859302520752e-02,-1.144158393144607544e-01,-9.439259767532348633e-02,-7.782088220119476318e-02,-2.505936473608016968e-02,-1.335101127624511719e-01,8.246456086635589600e-02,-7.197331637144088745e-02,4.696537554264068604e-02,-4.388567060232162476e-02,-1.012065410614013672e-01,8.416467905044555664e-02,-1.235042810440063477e-01,-1.225829944014549255e-01,-1.039529293775558472e-01,1.241362988948822021e-01,-6.435818970203399658e-02,1.233846247196197510e-01,-4.405200481414794922e-02,-7.119263708591461182e-02,-9.128808975219726562e-02,-8.179534226655960083e-02,-3.229931741952896118e-02,-8.662687242031097412e-02,-1.013604402542114258e-01,-6.666703522205352783e-02,8.571635186672210693e-02,3.278984129428863525e-02},
                                                {3.115370869636535645e-02,-8.779576420783996582e-02,5.222186446189880371e-02,1.316483318805694580e-02,-1.154991239309310913e-01,-7.434190809726715088e-02,1.033708602190017700e-01,-1.079723015427589417e-01,-3.774797171354293823e-02,9.553585946559906006e-02,1.504211127758026123e-02,1.332423388957977295e-01,-3.046796470880508423e-02,1.264554858207702637e-01,6.203693151473999023e-02,-1.109506711363792419e-01,1.190378367900848389e-01,-5.571958422660827637e-02,-1.224951744079589844e-01,-4.107899218797683716e-02,1.219148337841033936e-01,-5.714562535285949707e-02,1.518811285495758057e-02,1.038243323564529419e-01,-1.108608245849609375e-01,6.102384626865386963e-02,5.917638540267944336e-02,-8.214364945888519287e-02,4.914543032646179199e-02,-4.546596854925155640e-02,7.744280993938446045e-02,-8.098351210355758667e-02,2.369433641433715820e-04,2.300292253494262695e-04,4.302009940147399902e-02,-2.017318457365036011e-02,6.956522166728973389e-02,3.133000433444976807e-02,-9.843137115240097046e-02,-4.358734190464019775e-02,8.435530960559844971e-02,-1.261704564094543457e-01,3.329285979270935059e-02,5.291981995105743408e-02,-6.681244820356369019e-02,-7.028727233409881592e-02,-1.594287157058715820e-02,1.156650483608245850e-02,2.875401079654693604e-02,6.577013432979583740e-02,2.507431805133819580e-02,-1.206434443593025208e-01,1.065354794263839722e-01,-2.367661148309707642e-02,-7.122772932052612305e-02,1.328773498535156250e-01,5.469907820224761963e-02,7.105901837348937988e-03,4.487219452857971191e-02,-5.262172967195510864e-02,4.221731424331665039e-02,-1.289075911045074463e-01,-3.350006788969039917e-02,5.858071148395538330e-02},
                                                {-6.827238947153091431e-02,2.621859312057495117e-02,2.867235243320465088e-02,2.547456324100494385e-02,-5.128130316734313965e-03,-2.984249033033847809e-02,6.663367152214050293e-02,9.037592262029647827e-02,1.160309314727783203e-01,3.718151152133941650e-02,-4.485130310058593750e-02,-1.152924634516239166e-02,-5.332810059189796448e-02,-1.277745217084884644e-01,4.906617105007171631e-03,4.641148447990417480e-02,7.843505591154098511e-03,4.943516850471496582e-02,1.242635473608970642e-01,-5.506967008113861084e-02,7.305775582790374756e-02,3.314134478569030762e-02,6.856292020529508591e-04,1.489188820123672485e-01,-9.034492820501327515e-02,-8.879631757736206055e-02,-3.295860812067985535e-02,1.014316082000732422e-01,-1.245881095528602600e-01,-1.767217367887496948e-01,-6.357091665267944336e-02,-5.983331054449081421e-02,1.156360879540443420e-01,-1.194994673132896423e-01,8.880857378244400024e-02,-1.171087771654129028e-01,6.522084772586822510e-02,8.717381209135055542e-02,9.396257251501083374e-02,-1.751265488564968109e-02,-6.119664013385772705e-02,8.995142765343189240e-03,2.924547530710697174e-02,-7.838587462902069092e-02,-1.048465669155120850e-01,-1.205610856413841248e-01,-1.047207787632942200e-01,-1.543709188699722290e-01,2.973810955882072449e-02,6.391632836312055588e-03,2.905134856700897217e-02,1.110144108533859253e-01,2.184824645519256592e-02,-1.298266500234603882e-01,-1.017348989844322205e-01,6.892329454421997070e-02,-9.442861378192901611e-02,7.552982121706008911e-02,7.510332763195037842e-02,-1.317927837371826172e-01,-3.935290500521659851e-02,9.567588567733764648e-02,6.462866067886352539e-02,-2.453703060746192932e-02},
                                                {-5.831827968358993530e-02,-1.002745181322097778e-01,-3.408477455377578735e-02,6.424307823181152344e-02,-1.117288395762443542e-01,1.779658161103725433e-02,8.238135278224945068e-02,8.352906256914138794e-02,3.342242538928985596e-02,9.861233830451965332e-02,5.812924355268478394e-02,5.361824296414852142e-03,-8.409112691879272461e-02,-3.304949402809143066e-02,-2.015831507742404938e-02,1.548784971237182617e-02,1.385552734136581421e-01,-9.340745210647583008e-02,1.029903218150138855e-01,9.254855662584304810e-02,1.354287862777709961e-01,-7.454490661621093750e-02,2.197415567934513092e-02,-5.174775049090385437e-02,1.243112310767173767e-01,8.142767846584320068e-02,9.630938991904258728e-03,-8.818183094263076782e-02,-2.586065605282783508e-02,2.859000675380229950e-02,1.279212683439254761e-01,1.169566214084625244e-01,1.458769589662551880e-01,-1.211435943841934204e-01,-7.556271553039550781e-02,-5.375319719314575195e-02,1.951699405908584595e-01,7.581961154937744141e-02,-6.437100237235426903e-04,1.083276495337486267e-01,-4.186134040355682373e-02,-2.177068032324314117e-02,-7.923142611980438232e-02,-1.040393114089965820e-01,3.688707947731018066e-02,7.858347147703170776e-02,-1.387330591678619385e-01,-1.575568877160549164e-02,1.994606293737888336e-02,-1.106231957674026489e-01,4.137535393238067627e-02,1.753519475460052490e-02,2.753049135208129883e-02,-1.390658915042877197e-01,1.378647834062576294e-01,1.273950934410095215e-02,1.179091036319732666e-01,-7.924900203943252563e-02,5.488215386867523193e-02,-3.344966098666191101e-02,8.002583682537078857e-02,1.325952112674713135e-01,1.192189529538154602e-01,1.282554119825363159e-01},
                                                {1.153289601206779480e-01,-8.519738912582397461e-03,2.895280718803405762e-03,8.690761029720306396e-02,1.164024472236633301e-01,1.431446224451065063e-01,7.775513827800750732e-02,2.934402320533990860e-03,-1.294120252132415771e-01,3.552606701850891113e-02,-5.434991046786308289e-02,3.499373421072959900e-02,-4.925143346190452576e-02,1.282115876674652100e-01,-1.216132473200559616e-02,1.424469053745269775e-02,1.026263684034347534e-01,7.329286634922027588e-02,2.177826128900051117e-02,-1.189709082245826721e-02,2.241392433643341064e-02,8.424597978591918945e-02,-4.754828754812479019e-03,3.043112531304359436e-02,1.204703375697135925e-01,4.544925689697265625e-02,3.866205364465713501e-02,6.837362051010131836e-02,9.336370229721069336e-02,-1.102364435791969299e-02,-2.864459343254566193e-02,1.057593077421188354e-01,1.001369431614875793e-01,-9.102361649274826050e-02,-6.134488433599472046e-02,4.134473204612731934e-02,1.717788428068161011e-01,2.919895760715007782e-02,5.184352397918701172e-02,8.808284252882003784e-02,1.941134035587310791e-02,1.163697987794876099e-01,-7.951189577579498291e-02,-1.246218532323837280e-01,-6.604684889316558838e-02,4.530088976025581360e-02,-1.148240864276885986e-01,-9.773330762982368469e-03,1.498812437057495117e-02,1.043774485588073730e-01,8.828641474246978760e-02,1.187170594930648804e-01,2.019305154681205750e-02,-1.100428849458694458e-01,2.874220721423625946e-02,-9.513312578201293945e-02,5.066555738449096680e-02,-8.782315999269485474e-03,1.267119050025939941e-01,-5.753193795680999756e-02,-1.044065058231353760e-01,1.268905401229858398e-01,7.150549441576004028e-02,1.478533148765563965e-01},
                                                {3.472293913364410400e-02,1.181235313415527344e-01,9.899295866489410400e-02,-1.296188086271286011e-01,8.458615839481353760e-02,-2.105759456753730774e-02,-1.153837814927101135e-01,8.317416161298751831e-02,-1.081008017063140869e-01,-8.428061008453369141e-02,-1.002156212925910950e-01,-1.783762872219085693e-02,-5.744422320276498795e-03,1.116990596055984497e-01,-6.493834406137466431e-02,6.519329547882080078e-02,1.251866668462753296e-01,-7.796600461006164551e-02,8.860539644956588745e-02,1.052061542868614197e-01,1.043873876333236694e-01,4.618507623672485352e-02,-5.137357395142316818e-03,5.869670584797859192e-02,-5.388439819216728210e-02,-9.878297895193099976e-02,1.530706975609064102e-02,-1.474760323762893677e-01,2.420238219201564789e-02,-1.672327071428298950e-01,-1.013287082314491272e-01,-8.982677757740020752e-02,7.102606445550918579e-02,7.645984296686947346e-04,-5.256155133247375488e-02,5.254095792770385742e-02,1.970178484916687012e-01,-2.315415255725383759e-02,-4.708655551075935364e-02,7.507423311471939087e-02,-7.246573269367218018e-02,-1.285531669855117798e-01,-3.519982844591140747e-02,3.245389461517333984e-02,7.498720288276672363e-02,-1.203336641192436218e-01,3.588792681694030762e-02,1.041663438081741333e-01,6.916169822216033936e-02,1.148796454071998596e-02,1.269710063934326172e-01,-4.358498007059097290e-02,-3.969592601060867310e-02,3.915096074342727661e-02,1.171064600348472595e-01,1.192043423652648926e-01,4.139585793018341064e-02,9.724935144186019897e-02,-1.136402785778045654e-02,-5.650584399700164795e-02,4.455648735165596008e-02,4.299350082874298096e-02,-2.912484109401702881e-03,1.164158880710601807e-01},
                                                {-1.003274619579315186e-01,1.646306738257408142e-02,9.435172379016876221e-02,-8.737464994192123413e-02,5.848212540149688721e-02,6.232143566012382507e-02,-2.125310897827148438e-02,-8.793158829212188721e-02,-1.110519766807556152e-01,-1.267603188753128052e-01,-5.578243359923362732e-02,-2.197149209678173065e-02,8.103028684854507446e-02,1.322744786739349365e-01,3.859732672572135925e-02,-2.595417946577072144e-02,4.826239868998527527e-02,2.556504309177398682e-02,1.397686917334794998e-02,-2.320698462426662445e-02,-2.354504168033599854e-02,4.895735159516334534e-02,9.123100340366363525e-02,9.471897780895233154e-02,1.026598364114761353e-01,-4.783361405134201050e-02,8.759855479001998901e-02,1.409947127103805542e-01,8.728969097137451172e-02,1.476505547761917114e-01,-1.041899845004081726e-01,9.379231929779052734e-02,-8.886791765689849854e-02,-1.025779405608773232e-03,6.006900593638420105e-02,5.938598513603210449e-02,-1.331067532300949097e-01,-1.122294738888740540e-01,-2.514967508614063263e-02,-2.076666429638862610e-02,-5.343815684318542480e-02,1.117877960205078125e-01,1.131061278283596039e-02,1.076269596815109253e-01,6.103791296482086182e-02,2.284551411867141724e-02,7.711255550384521484e-02,1.354517936706542969e-01,2.626098878681659698e-02,3.455518931150436401e-02,2.882800996303558350e-02,-1.042035892605781555e-01,-1.369754821062088013e-01,1.251678168773651123e-01,1.252368539571762085e-01,1.030713319778442383e-01,1.015904396772384644e-01,-1.137088760733604431e-01,5.912468582391738892e-02,5.657763779163360596e-02,6.790626794099807739e-02,1.328510046005249023e-02,-5.831713974475860596e-02,-5.693709850311279297e-02},
                                                {3.476941958069801331e-02,4.652937874197959900e-02,-1.415918022394180298e-02,-1.239270269870758057e-01,-1.087884083390235901e-01,-1.010335832834243774e-01,-3.930770605802536011e-02,6.187643390148878098e-03,-6.720525026321411133e-02,-6.978222727775573730e-02,-2.495926618576049805e-02,1.235049366950988770e-01,6.853132694959640503e-02,-5.361650139093399048e-02,-2.287863567471504211e-02,-7.099936902523040771e-02,-2.907748706638813019e-02,2.091724984347820282e-02,3.140257298946380615e-02,8.233914524316787720e-02,2.694144845008850098e-02,-9.825693443417549133e-03,-2.657122537493705750e-02,2.408173494040966034e-02,9.051454067230224609e-02,-3.040815144777297974e-02,9.866640716791152954e-02,-1.039124205708503723e-01,-9.668934345245361328e-02,9.488964825868606567e-02,-1.380022317171096802e-01,-1.134714931249618530e-01,1.822223700582981110e-02,2.255191560834646225e-03,1.043298169970512390e-01,1.279481351375579834e-01,-7.828925736248493195e-03,8.174350112676620483e-02,2.280877158045768738e-02,-4.454246163368225098e-02,5.197642743587493896e-02,3.032460808753967285e-02,-2.871985547244548798e-02,-3.750475496053695679e-02,-1.048678904771804810e-01,-5.024040490388870239e-02,1.216616779565811157e-01,-1.098367869853973389e-01,-4.552664235234260559e-02,1.078769937157630920e-02,-7.675111293792724609e-02,1.788507774472236633e-02,-7.370987534523010254e-02,1.570286415517330170e-02,-1.107431277632713318e-01,2.035665512084960938e-02,-1.950255036354064941e-02,5.562520027160644531e-02,-6.852160394191741943e-02,6.230209767818450928e-02,-9.076578170061111450e-02,6.729558110237121582e-03,3.124174103140830994e-02,-1.196218580007553101e-01},
                                                {1.060961633920669556e-01,-9.124655276536941528e-02,6.198149919509887695e-02,9.065085649490356445e-02,-6.258125603199005127e-02,-7.876247912645339966e-02,1.139013767242431641e-01,1.070330664515495300e-01,7.918179035186767578e-04,-2.139237523078918457e-02,1.067907065153121948e-01,-2.154375053942203522e-02,1.443971693515777588e-01,7.828179001808166504e-02,1.312049180269241333e-01,-1.188590377569198608e-01,1.043529957532882690e-01,-1.257643699645996094e-01,-5.947175994515419006e-02,7.826615124940872192e-02,-1.224833875894546509e-01,-6.343774497509002686e-02,3.618086129426956177e-02,3.120488300919532776e-02,8.331658691167831421e-02,-1.456477399915456772e-02,-7.709042169153690338e-03,4.105663672089576721e-02,-3.707059100270271301e-02,3.924195095896720886e-02,7.033649832010269165e-03,-6.185264885425567627e-02,-1.507794260978698730e-01,7.811228930950164795e-02,-1.190685108304023743e-01,-3.785043954849243164e-03,-7.343587279319763184e-02,1.758288964629173279e-02,-8.138696104288101196e-02,9.248817223124206066e-04,1.630111038684844971e-02,1.376479119062423706e-01,-5.084823817014694214e-02,-1.341368257999420166e-01,1.589533686637878418e-02,-1.003928296267986298e-02,2.726840972900390625e-02,9.201366454362869263e-02,1.154672130942344666e-01,4.796688631176948547e-02,4.934056103229522705e-02,-1.106738746166229248e-01,-1.823922805488109589e-02,1.063410341739654541e-01,-3.792190225794911385e-03,5.107659101486206055e-02,-7.491888105869293213e-02,-1.608667895197868347e-02,-1.196997389197349548e-01,-5.263144150376319885e-02,-2.376708388328552246e-02,1.150681376457214355e-01,-9.187489002943038940e-02,-1.167996153235435486e-01},
                                                {8.207962661981582642e-02,-9.107597917318344116e-02,-1.260534524917602539e-01,-8.939182758331298828e-02,9.749191999435424805e-02,-2.353112399578094482e-02,1.573236286640167236e-02,-7.734259963035583496e-02,-9.652912616729736328e-03,4.711779952049255371e-02,4.996815696358680725e-02,4.543073475360870361e-02,-9.791725873947143555e-02,-3.496421268209815025e-03,-1.304003894329071045e-01,7.114274799823760986e-02,9.401942044496536255e-02,-7.253504544496536255e-02,-5.911746621131896973e-02,-5.303126573562622070e-02,5.847364664077758789e-03,1.097453385591506958e-01,6.636190414428710938e-02,1.107285767793655396e-01,8.035393804311752319e-02,-8.231553435325622559e-02,5.057163909077644348e-02,1.353013962507247925e-01,-2.327306382358074188e-02,1.236155107617378235e-01,1.010721251368522644e-01,-1.151744201779365540e-01,-2.480956353247165680e-02,-2.652537822723388672e-02,-8.377400040626525879e-02,2.020291984081268311e-02,-7.681746967136859894e-03,-8.267837017774581909e-02,3.898588474839925766e-03,-3.382731601595878601e-02,5.860669910907745361e-02,1.270541995763778687e-01,9.872162342071533203e-02,8.863191306591033936e-02,-3.341622650623321533e-02,1.257921382784843445e-02,-7.182356715202331543e-02,1.265860050916671753e-01,1.014935672283172607e-01,5.715322494506835938e-02,-9.850329160690307617e-02,-9.020989388227462769e-02,-9.725138545036315918e-02,1.151055246591567993e-01,3.424040228128433228e-02,-1.306203752756118774e-01,7.779614627361297607e-02,1.054048165678977966e-01,-8.597285300493240356e-02,-8.097067475318908691e-03,6.501843780279159546e-02,-2.696933597326278687e-02,-5.283426493406295776e-02,-1.163011193275451660e-01},
                                                {-1.097942814230918884e-01,3.176328912377357483e-02,-1.805616915225982666e-02,8.730500936508178711e-02,-1.152198314666748047e-01,7.550094742327928543e-03,-1.102603226900100708e-01,2.452928945422172546e-02,-4.337001591920852661e-02,5.684845149517059326e-02,-1.402149796485900879e-01,1.050069630146026611e-01,-1.293089240789413452e-01,-8.994646370410919189e-02,9.430493414402008057e-02,8.569543063640594482e-02,4.405387677252292633e-03,8.355581760406494141e-02,1.061060428619384766e-01,-1.415765136480331421e-01,-6.670728325843811035e-03,1.152503043413162231e-01,1.188063621520996094e-01,-1.604228466749191284e-02,6.068523973226547241e-02,1.160059571266174316e-01,-8.808482438325881958e-02,1.209419742226600647e-01,3.809933736920356750e-02,7.181661576032638550e-02,5.375754088163375854e-02,3.366889059543609619e-02,6.970182061195373535e-02,5.480830743908882141e-02,-1.177502796053886414e-01,-1.157893240451812744e-01,3.680741414427757263e-02,-1.196176744997501373e-03,7.462744414806365967e-02,5.956423282623291016e-02,5.484576523303985596e-02,-1.164955869317054749e-01,1.058405190706253052e-01,-4.617620259523391724e-02,8.113454282283782959e-02,-4.130520671606063843e-02,-6.848529726266860962e-02,1.339970827102661133e-01,-7.351838052272796631e-02,1.244123466312885284e-02,-3.504069894552230835e-02,-6.059953570365905762e-02,-3.527799621224403381e-02,3.925056755542755127e-02,7.208527531474828720e-03,1.702511310577392578e-02,3.050427138805389404e-02,3.390494734048843384e-02,1.040160432457923889e-01,-8.965117484331130981e-02,-5.844902992248535156e-02,-8.278562128543853760e-02,8.709942549467086792e-02,-5.460666865110397339e-02},
                                                {1.573644131422042847e-01,-5.844539403915405273e-02,-9.017002582550048828e-02,-4.937833547592163086e-02,-3.124067932367324829e-02,1.183251366019248962e-01,-4.144329577684402466e-02,-6.079037114977836609e-02,-2.035685628652572632e-02,-5.874290317296981812e-02,3.172258948325179517e-05,9.260990470647811890e-02,-1.460122317075729370e-01,2.614731900393962860e-02,6.683353334665298462e-02,-1.168298721313476562e-01,1.355800777673721313e-01,1.057209521532058716e-01,9.508355706930160522e-02,8.050432056188583374e-02,-1.206964999437332153e-01,-8.456316590309143066e-02,-1.081021875143051147e-01,3.045834973454475403e-02,-3.682546690106391907e-02,-8.614921569824218750e-02,-1.175140216946601868e-01,-1.350086778402328491e-01,-3.831731528043746948e-02,-1.668741255998611450e-01,7.095648348331451416e-02,7.830722630023956299e-02,1.454727500677108765e-01,9.753657132387161255e-02,3.397227078676223755e-02,1.326239705085754395e-01,3.882192820310592651e-02,-7.730784267187118530e-02,4.385327920317649841e-02,-4.496589303016662598e-02,-1.083108857274055481e-01,-9.005919843912124634e-02,1.957249455153942108e-02,1.284648478031158447e-02,6.631210446357727051e-02,-4.556078929454088211e-03,-1.114791929721832275e-01,3.144468739628791809e-02,1.158929541707038879e-01,2.806652709841728210e-02,9.065957367420196533e-02,8.195590972900390625e-02,-4.270745813846588135e-02,-1.037232130765914917e-01,-8.622662164270877838e-03,7.418200373649597168e-03,6.915214657783508301e-02,-5.238933116197586060e-02,7.494959235191345215e-02,-1.148355007171630859e-01,-7.322415709495544434e-03,9.567750990390777588e-02,1.103958021849393845e-02,7.666465640068054199e-02},
                                                {-4.425766319036483765e-02,-3.627553582191467285e-03,3.884866833686828613e-03,1.198617517948150635e-01,4.789774119853973389e-02,-6.478102505207061768e-02,-8.060660958290100098e-02,1.115014776587486267e-01,-8.582846820354461670e-02,-2.384705841541290283e-02,3.332834318280220032e-02,-7.219383865594863892e-02,2.879144065082073212e-02,9.062768518924713135e-02,5.849396064877510071e-02,2.633889019489288330e-02,1.118706762790679932e-01,3.065149486064910889e-02,1.398882716894149780e-01,3.529382869601249695e-03,-1.322408914566040039e-01,1.296283602714538574e-01,-4.681171476840972900e-02,2.440318837761878967e-02,7.735974341630935669e-02,-2.578017115592956543e-02,6.891013681888580322e-02,9.002652764320373535e-02,-1.492459475994110107e-01,-1.339200437068939209e-01,1.193647384643554688e-01,-3.811929374933242798e-02,-1.071371734142303467e-01,2.052701823413372040e-02,-5.011774599552154541e-02,1.096455752849578857e-02,4.523458704352378845e-02,-1.116078719496726990e-01,-2.447791211307048798e-02,-5.792240053415298462e-02,1.099870055913925171e-01,-1.321142166852951050e-01,-4.419151321053504944e-02,2.506096661090850830e-02,5.874414741992950439e-02,-4.330375418066978455e-02,-1.844916120171546936e-02,1.008249670267105103e-01,-1.786364801228046417e-02,-1.393524408340454102e-01,3.632545471191406250e-03,2.342506125569343567e-02,-6.774279475212097168e-02,-6.054546684026718140e-02,7.566748559474945068e-02,1.303632259368896484e-01,-3.665909916162490845e-02,-1.181117668747901917e-01,-1.191300004720687866e-01,5.267622321844100952e-02,4.957765713334083557e-02,-1.265302151441574097e-01,-8.613391965627670288e-02,-1.099340468645095825e-01},
                                                {-2.871390059590339661e-02,-4.703389853239059448e-02,7.574810087680816650e-02,3.962878882884979248e-02,2.532765269279479980e-03,-7.352253794670104980e-02,1.004238128662109375e-01,-8.580801077187061310e-04,-5.787535011768341064e-02,-3.773641586303710938e-02,1.601491682231426239e-02,-1.837307401001453400e-02,1.157573387026786804e-01,-1.178121846169233322e-02,2.402553893625736237e-02,-6.003258377313613892e-02,-6.110912561416625977e-02,1.137112975120544434e-01,1.100296005606651306e-01,-5.588143318891525269e-02,-1.354865133762359619e-01,-7.824718952178955078e-02,2.593463473021984100e-02,1.326522380113601685e-01,1.182393506169319153e-01,5.265025794506072998e-02,8.304410427808761597e-02,1.094530075788497925e-01,-9.743542969226837158e-02,6.767714023590087891e-02,-1.000656373798847198e-02,-6.887164711952209473e-02,1.448289901018142700e-01,-3.356744349002838135e-02,-6.822639703750610352e-02,-2.383755892515182495e-02,1.077799964696168900e-02,-1.084837503731250763e-02,8.298165351152420044e-02,8.408422023057937622e-02,7.247245311737060547e-02,-1.099375784397125244e-01,-3.610473126173019409e-02,-5.154559016227722168e-02,3.390945494174957275e-02,1.136166825890541077e-01,7.348659634590148926e-02,-3.407157585024833679e-02,-7.562258839607238770e-02,9.298682212829589844e-02,3.176243603229522705e-02,9.852269291877746582e-02,2.486462518572807312e-02,-9.368569403886795044e-02,9.334481507539749146e-02,1.231660246849060059e-01,-1.286582350730895996e-01,6.393735855817794800e-02,-1.135485768318176270e-01,-3.143062349408864975e-03,1.451586484909057617e-01,-9.523342549800872803e-02,-1.008598804473876953e-01,4.849136248230934143e-02},
                                                {5.511415656656026840e-03,-8.386671543121337891e-02,-1.304513961076736450e-02,-7.304093241691589355e-02,1.238379776477813721e-01,4.842368885874748230e-03,2.702702581882476807e-02,1.303382813930511475e-01,1.067810207605361938e-01,-1.344174295663833618e-01,1.244963780045509338e-01,-1.146935373544692993e-01,-5.957483872771263123e-02,2.958542108535766602e-02,-3.216261975467205048e-03,-3.514262288808822632e-02,3.862934559583663940e-02,-8.806052803993225098e-02,-1.705531962215900421e-02,7.441044598817825317e-02,-1.348819285631179810e-01,-3.303419798612594604e-02,-1.339320987462997437e-01,-1.552687212824821472e-02,-6.000234186649322510e-02,5.529125034809112549e-02,7.348269969224929810e-02,1.159825399518013000e-01,2.661783061921596527e-02,8.988569490611553192e-03,6.467326730489730835e-02,-1.217296719551086426e-01,1.399083435535430908e-01,-2.619633637368679047e-02,-5.207273364067077637e-02,-3.120134025812149048e-02,4.088290408253669739e-02,8.496325463056564331e-02,1.160790249705314636e-01,1.979840919375419617e-02,9.681895375251770020e-03,4.165329784154891968e-02,2.368184179067611694e-02,-2.197061479091644287e-02,-6.684926897287368774e-02,-5.181719735264778137e-02,5.409878119826316833e-02,-2.302339486777782440e-02,-8.566534146666526794e-03,-2.850520238280296326e-02,-1.310029625892639160e-01,-8.769510686397552490e-02,-3.123313933610916138e-02,1.043497622013092041e-01,9.298937767744064331e-02,-1.324487924575805664e-01,-1.032385528087615967e-01,4.894232004880905151e-02,-3.765646368265151978e-02,-1.179306432604789734e-01,-9.543287754058837891e-02,3.087043762207031250e-02,1.404070705175399780e-01,6.843462586402893066e-02},
                                                {5.219568312168121338e-02,2.683091163635253906e-02,-1.071848645806312561e-01,-8.210558444261550903e-02,6.431959569454193115e-02,4.295140504837036133e-03,5.064839124679565430e-02,8.536376059055328369e-02,-9.885323047637939453e-02,1.304919719696044922e-01,6.887993216514587402e-02,-1.081261038780212402e-01,8.151738345623016357e-02,1.321416199207305908e-01,-9.126594662666320801e-02,8.738636970520019531e-02,3.271761536598205566e-02,3.222659230232238770e-03,-9.158948063850402832e-02,6.098708510398864746e-02,1.331676840782165527e-01,-4.420031607151031494e-02,2.804583311080932617e-02,5.997493863105773926e-02,-8.654515445232391357e-02,-9.267714619636535645e-02,-1.921045780181884766e-02,-1.052200198173522949e-01,-7.504548132419586182e-02,-7.859360426664352417e-02,4.906266927719116211e-02,2.876029908657073975e-02,-1.319300979375839233e-01,-1.061153560876846313e-01,1.349676847457885742e-01,-1.819547265768051147e-02,4.645216464996337891e-02,7.755222916603088379e-02,-9.968246519565582275e-02,-1.857633143663406372e-02,1.241658031940460205e-01,6.809432804584503174e-02,1.306858658790588379e-01,1.883983612060546875e-03,-8.190314471721649170e-02,6.774067878723144531e-05,-5.205807834863662720e-02,-1.201927512884140015e-01,-2.267406135797500610e-02,2.590015530586242676e-02,-4.658409208059310913e-02,1.309760510921478271e-01,-1.321853697299957275e-01,6.485983729362487793e-02,1.300807893276214600e-01,-6.226902455091476440e-02,8.868978917598724365e-02,-1.184414848685264587e-01,5.086764693260192871e-02,1.152651011943817139e-01,-7.518583536148071289e-02,-1.152243316173553467e-01,-1.341906934976577759e-01,-1.933111995458602905e-02},
                                                {-1.077951937913894653e-01,8.021599054336547852e-02,3.003232181072235107e-02,-1.166890040040016174e-01,4.902467131614685059e-02,1.221462786197662354e-01,-1.284123659133911133e-01,-7.071194797754287720e-02,5.580723285675048828e-02,6.583414971828460693e-02,1.096054613590240479e-01,6.191986799240112305e-02,-1.209440529346466064e-01,1.094981431961059570e-01,1.672723889350891113e-02,-1.130236163735389709e-01,3.500851988792419434e-02,-1.970431208610534668e-02,-2.186826616525650024e-02,9.022995829582214355e-03,1.263972222805023193e-01,7.037450373172760010e-02,4.382658004760742188e-02,5.023443698883056641e-02,1.182726025581359863e-01,1.303802728652954102e-01,-3.243418037891387939e-02,6.746296584606170654e-02,9.349906444549560547e-02,6.490446627140045166e-02,-1.309416145086288452e-01,-1.131761074066162109e-02,3.383626043796539307e-02,-9.826317429542541504e-02,-1.087407097220420837e-01,1.012434065341949463e-01,-2.959848195314407349e-02,-7.389788329601287842e-02,1.263374090194702148e-01,1.010436415672302246e-01,-7.403835654258728027e-03,-3.855177015066146851e-02,6.494615972042083740e-02,6.913706660270690918e-03,5.309902131557464600e-02,-6.680810451507568359e-02,-2.602528780698776245e-02,5.826188623905181885e-02,1.186566352844238281e-01,-1.010173559188842773e-01,-1.071902215480804443e-01,-5.989733338356018066e-02,7.336828112602233887e-02,-8.980663865804672241e-02,9.697966277599334717e-02,-3.626351803541183472e-02,-7.393474131822586060e-02,9.620195627212524414e-02,1.381084322929382324e-02,1.246365010738372803e-01,1.117202192544937134e-01,1.226061284542083740e-01,-1.193897426128387451e-02,-1.074292212724685669e-01},
                                                {1.262621879577636719e-01,-6.931919604539871216e-02,6.295770406723022461e-02,-1.064921915531158447e-02,4.516953229904174805e-02,-5.375789850950241089e-02,-5.660261213779449463e-02,9.593892097473144531e-02,5.844500660896301270e-02,1.191624999046325684e-02,-5.394934117794036865e-02,-1.356492638587951660e-01,9.573876857757568359e-03,1.218700110912322998e-01,-1.149197071790695190e-01,2.085997164249420166e-02,-1.354762911796569824e-01,-7.005874812602996826e-02,-3.138582408428192139e-02,1.033836603164672852e-01,6.120881438255310059e-02,5.996151268482208252e-02,-1.044023782014846802e-01,-7.550871372222900391e-02,7.263278961181640625e-02,-1.126361265778541565e-01,-1.881775259971618652e-02,1.093444228172302246e-01,-3.534287959337234497e-02,-6.327241659164428711e-03,-1.142195016145706177e-01,1.345098018646240234e-02,-1.361368745565414429e-01,3.955362737178802490e-02,-1.331252008676528931e-01,2.346792817115783691e-02,-5.631686002016067505e-02,9.368024766445159912e-02,4.132665693759918213e-02,-1.270824074745178223e-01,-1.235931515693664551e-01,-1.149019151926040649e-01,-9.990113228559494019e-02,3.450649976730346680e-02,6.846293807029724121e-02,7.766976952552795410e-02,7.172755897045135498e-02,-1.136810258030891418e-01,-1.118991598486900330e-01,-1.353724747896194458e-01,1.089578419923782349e-01,1.109641790390014648e-02,1.123342067003250122e-01,5.081780254840850830e-02,-6.309998035430908203e-02,1.068699508905410767e-01,6.091701984405517578e-02,4.936243593692779541e-02,7.967218756675720215e-03,-2.838143706321716309e-02,4.224774241447448730e-02,-3.748640418052673340e-03,-7.787732779979705811e-02,1.013939082622528076e-01},
                                                {1.899542510509490967e-01,4.287347197532653809e-03,-1.636385172605514526e-02,7.347820699214935303e-02,-1.066118478775024414e-03,8.917424827814102173e-02,1.250611245632171631e-02,6.805858761072158813e-02,1.094105541706085205e-01,3.245761990547180176e-02,-8.893451839685440063e-02,2.539380639791488647e-02,-6.798969209194183350e-02,-1.361676156520843506e-01,1.189492493867874146e-01,9.908372163772583008e-02,-7.669933140277862549e-02,-1.002858430147171021e-01,4.367903992533683777e-02,1.032290682196617126e-01,-1.170133128762245178e-01,4.415836930274963379e-02,-1.245902255177497864e-01,-9.266912192106246948e-02,4.175759479403495789e-02,-1.304532587528228760e-01,5.623424425721168518e-02,1.022451817989349365e-01,9.412252902984619141e-02,-1.803031712770462036e-01,-1.050453186035156250e-01,-1.881869882345199585e-02,1.138271614909172058e-01,-1.044135391712188721e-01,-5.479645729064941406e-02,-5.971258133649826050e-02,2.310864441096782684e-02,4.031686112284660339e-02,-6.574172060936689377e-03,-1.121892407536506653e-01,-1.113263741135597229e-01,6.931456178426742554e-02,8.514703065156936646e-02,-2.854790538549423218e-02,1.109895259141921997e-01,-1.731164008378982544e-02,-3.260299935936927795e-02,-6.370921432971954346e-02,5.836100503802299500e-02,-1.231892779469490051e-01,6.480136513710021973e-02,-9.756034612655639648e-02,1.001766324043273926e-01,6.437756121158599854e-02,7.582081854343414307e-02,1.051100939512252808e-01,1.025195419788360596e-02,1.086886301636695862e-01,-6.181421875953674316e-02,1.766310818493366241e-02,1.424987912178039551e-01,-3.302534669637680054e-02,-5.216301605105400085e-02,1.223800629377365112e-01},
                                                {1.313568651676177979e-01,8.938552439212799072e-02,1.324495673179626465e-01,4.065118730068206787e-02,-1.234585493803024292e-01,2.345534600317478180e-02,-6.188349425792694092e-02,-9.194593876600265503e-02,-1.468502730131149292e-02,8.758603036403656006e-02,-1.111622317694127560e-03,1.728675663471221924e-01,-2.352034859359264374e-02,-1.385859251022338867e-01,-1.039059013128280640e-01,-1.052541285753250122e-01,1.815668679773807526e-02,-7.161188870668411255e-02,1.493935137987136841e-01,1.199936773627996445e-02,-9.873384237289428711e-02,-1.198274344205856323e-01,3.937835991382598877e-02,2.661272138357162476e-02,-1.012171152979135513e-02,1.002836227416992188e-01,3.674375638365745544e-02,9.098168462514877319e-02,-5.485790222883224487e-02,-7.056867331266403198e-02,1.050447002053260803e-01,1.266233623027801514e-01,5.812278389930725098e-02,-7.754125446081161499e-02,-2.061928622424602509e-02,4.266333580017089844e-02,-3.398380428552627563e-02,1.243916377425193787e-01,-5.416625738143920898e-02,3.744304180145263672e-02,1.179507672786712646e-01,2.249924233183264732e-03,9.956195950508117676e-02,-1.090345978736877441e-01,1.533932983875274658e-02,-6.667983531951904297e-02,-6.914035975933074951e-02,5.752973631024360657e-02,-4.412314295768737793e-02,-3.192897513508796692e-02,-2.542505273595452309e-03,-2.073266915977001190e-02,-1.335337013006210327e-01,-5.830878764390945435e-02,-8.963903784751892090e-02,-1.225026473402976990e-01,-5.287373065948486328e-02,-1.277976632118225098e-01,-5.948548018932342529e-02,3.885427955538034439e-03,1.978543996810913086e-01,3.511816263198852539e-03,1.078799590468406677e-01,-2.594092860817909241e-02},
                                                {1.447853296995162964e-01,-2.458936348557472229e-02,8.233261108398437500e-02,1.987247169017791748e-02,1.134021282196044922e-01,1.056895852088928223e-01,3.910006582736968994e-02,1.542048007249832153e-01,-3.519624471664428711e-03,-1.282496303319931030e-01,-1.204451359808444977e-02,1.799926534295082092e-02,-8.505772799253463745e-02,1.602951250970363617e-02,-1.598079688847064972e-02,1.312355995178222656e-01,-1.068748831748962402e-01,-1.167726069688796997e-01,1.363665461540222168e-01,-1.087028086185455322e-01,2.605378627777099609e-03,3.114394843578338623e-02,6.385157257318496704e-02,2.026172541081905365e-02,-8.285280317068099976e-02,-1.078949645161628723e-01,-4.555220901966094971e-02,-4.379571601748466492e-02,6.822170317173004150e-02,-9.574162214994430542e-02,1.296318620443344116e-01,-1.256839483976364136e-01,1.542176306247711182e-01,-1.232379376888275146e-01,9.861316531896591187e-02,-1.076963692903518677e-01,-3.176017105579376221e-02,-5.764430761337280273e-02,4.986403882503509521e-02,8.610510081052780151e-02,4.249703884124755859e-02,1.080271676182746887e-01,-1.111031174659729004e-01,3.580568730831146240e-02,-7.502900063991546631e-02,7.417304813861846924e-02,-3.605889622122049332e-03,-6.570547074079513550e-02,-1.517291814088821411e-01,7.100243121385574341e-02,1.257152110338211060e-01,1.387024857103824615e-02,-1.906165271066129208e-03,9.514897316694259644e-02,5.329436436295509338e-02,9.992310404777526855e-02,-3.425031900405883789e-04,-9.776245057582855225e-02,-1.634294241666793823e-01,3.504465147852897644e-02,1.468283087015151978e-01,1.527109742164611816e-02,4.212220665067434311e-03,-1.321841496974229813e-02},
                                                {-8.865751326084136963e-02,-1.084689646959304810e-01,3.731410205364227295e-02,5.847200751304626465e-02,-1.357013881206512451e-01,2.841744804754853249e-03,-6.699069589376449585e-02,-2.540369331836700439e-02,1.321062743663787842e-01,-1.022210791707038879e-01,-7.160652428865432739e-02,1.156158223748207092e-01,5.565115064382553101e-02,-1.524575403891503811e-03,-6.440468598157167435e-03,4.384812712669372559e-02,1.460218131542205811e-01,-4.696764796972274780e-02,-2.600787021219730377e-02,-4.533873498439788818e-02,1.243703067302703857e-01,2.835970139130949974e-03,5.815670266747474670e-02,1.146627124398946762e-02,2.178104594349861145e-02,-2.813253924250602722e-02,1.388365626335144043e-01,1.336921900510787964e-01,1.448167953640222549e-02,-1.073695495724678040e-01,-7.761286571621894836e-03,1.944552361965179443e-02,1.507665216922760010e-01,2.826087363064289093e-02,-9.605200029909610748e-03,-2.200163155794143677e-02,1.214860752224922180e-02,-3.610089048743247986e-02,-8.304650336503982544e-02,1.119084879755973816e-01,4.135766625404357910e-02,7.808799389749765396e-03,-1.268025338649749756e-01,3.652894496917724609e-02,1.317079067230224609e-01,-1.250792443752288818e-01,9.115324169397354126e-02,-4.802796617150306702e-02,6.143938004970550537e-02,2.931833453476428986e-02,-9.226591140031814575e-02,-7.352200150489807129e-02,4.373440518975257874e-02,2.320933900773525238e-02,1.511502116918563843e-01,-1.119192689657211304e-01,-1.145132184028625488e-01,9.430432319641113281e-02,9.919860959053039551e-02,-2.796822786331176758e-02,4.119358956813812256e-02,-1.367653608322143555e-01,8.106751739978790283e-02,-1.114934086799621582e-01},
                                                {7.393734157085418701e-02,-4.833501949906349182e-02,-6.661212444305419922e-02,-1.322267949581146240e-01,-6.850414723157882690e-02,-1.430894285440444946e-01,4.082995653152465820e-02,-8.030015975236892700e-03,9.732751548290252686e-02,1.269643902778625488e-01,-5.583574250340461731e-02,9.509094804525375366e-02,-3.003590553998947144e-02,8.331987261772155762e-02,6.413908302783966064e-02,-7.976640760898590088e-02,1.538796126842498779e-01,2.974665537476539612e-02,1.453021913766860962e-01,-2.280475199222564697e-02,-5.423285067081451416e-02,-9.780472517013549805e-02,-6.569416075944900513e-02,-1.216314882040023804e-01,1.350285708904266357e-01,-2.061527594923973083e-02,-1.129962950944900513e-01,-9.160424023866653442e-02,5.883195623755455017e-02,3.158580139279365540e-02,-1.138289421796798706e-01,-1.282526254653930664e-01,2.088064886629581451e-02,3.991032764315605164e-02,-4.973418638110160828e-02,-6.694440543651580811e-02,-9.733870625495910645e-02,7.233508676290512085e-02,5.763467028737068176e-02,6.757815927267074585e-02,-1.030508950352668762e-01,-1.018693391233682632e-02,1.464440822601318359e-01,2.550502121448516846e-02,-1.092289760708808899e-01,8.124221116304397583e-02,-6.032926216721534729e-02,1.517736464738845825e-01,-5.993521586060523987e-02,6.416860967874526978e-02,1.239917799830436707e-01,-1.001438871026039124e-01,8.810338377952575684e-02,1.088760197162628174e-01,1.315460205078125000e-01,1.260450184345245361e-01,-2.611738443374633789e-02,-2.071924880146980286e-02,-7.423257827758789062e-02,-8.974561840295791626e-02,-1.351910531520843506e-01,-7.731280475854873657e-02,2.379529923200607300e-02,2.915153279900550842e-02},
                                                {-1.525363773107528687e-01,-8.322387933731079102e-02,1.503637433052062988e-02,1.207613945007324219e-01,8.355262130498886108e-02,-6.497789174318313599e-02,-4.150888323783874512e-02,5.063200742006301880e-02,8.316770195960998535e-03,5.401179194450378418e-02,1.565646193921566010e-02,-1.238102391362190247e-01,2.037090249359607697e-02,1.162689477205276489e-01,-1.349435299634933472e-01,1.055273562669754028e-01,1.184235736727714539e-01,-5.359696596860885620e-02,-6.964313238859176636e-02,-1.486400812864303589e-01,4.837515950202941895e-02,8.007459342479705811e-02,3.797274455428123474e-02,-2.247105725109577179e-02,1.028362736105918884e-01,-6.843748688697814941e-02,6.608673185110092163e-02,1.268641185015439987e-02,-8.910289406776428223e-02,3.858071938157081604e-02,7.581621408462524414e-02,-1.215788424015045166e-01,2.396419458091259003e-02,-7.176562398672103882e-02,1.026874408125877380e-01,-2.958326786756515503e-02,-6.768797338008880615e-02,1.575820147991180420e-02,5.468033254146575928e-02,6.175707280635833740e-02,9.615823626518249512e-02,-7.229584734886884689e-03,8.682756870985031128e-02,8.141934871673583984e-02,-1.232959330081939697e-02,7.420832663774490356e-02,1.184617578983306885e-01,1.462504714727401733e-01,2.001252025365829468e-02,1.636556386947631836e-01,-1.395186930894851685e-01,-2.659681998193264008e-02,8.294630050659179688e-02,-1.156530827283859253e-01,7.137827575206756592e-02,-3.418087959289550781e-03,-6.513789296150207520e-02,4.772296547889709473e-02,1.708311215043067932e-02,-5.375460721552371979e-03,-1.793577969074249268e-01,5.861587822437286377e-02,3.676393628120422363e-02,-3.854500129818916321e-03},
                                                {2.125916630029678345e-02,-5.715404823422431946e-02,-1.149276420474052429e-01,-1.353753507137298584e-01,-8.748456835746765137e-02,1.575278490781784058e-01,-1.848870515823364258e-02,-1.288877874612808228e-01,1.292261574417352676e-02,-2.453433722257614136e-02,-1.209310628473758698e-02,-1.328880190849304199e-01,3.106848709285259247e-02,-1.451711636036634445e-02,-3.196180239319801331e-02,-1.679113507270812988e-02,1.152103170752525330e-01,-8.960350602865219116e-02,-1.062476709485054016e-01,1.354809850454330444e-01,-1.739882677793502808e-02,-6.663542240858078003e-02,-2.654403075575828552e-02,-1.009085252881050110e-01,-9.639056771993637085e-02,-8.179608732461929321e-02,1.000864356756210327e-01,1.141050234436988831e-01,1.154652535915374756e-01,-6.661096960306167603e-02,-3.775513544678688049e-02,6.380535662174224854e-02,3.273932496085762978e-03,1.442993283271789551e-01,7.473511993885040283e-02,-1.009189933538436890e-01,-9.016961604356765747e-02,6.594140827655792236e-02,-1.122896522283554077e-01,-1.033499911427497864e-01,-1.203250065445899963e-01,-5.541261658072471619e-02,1.227957382798194885e-01,-2.826880663633346558e-02,3.099618852138519287e-02,-6.270749121904373169e-02,-4.537896439433097839e-02,1.459244638681411743e-01,-3.951726853847503662e-02,2.470347471535205841e-02,-1.330668330192565918e-01,-4.847078397870063782e-02,-5.228461697697639465e-02,1.213796883821487427e-01,-1.945414394140243530e-02,2.502204477787017822e-02,-2.930828556418418884e-02,-4.953789710998535156e-02,9.259363263845443726e-02,-1.306028291583061218e-02,-3.162297233939170837e-02,8.661406487226486206e-02,6.437010318040847778e-02,-7.940544933080673218e-02},
                                                {8.567811548709869385e-02,4.292120784521102905e-02,-1.236873120069503784e-02,1.075348109006881714e-01,-9.418150037527084351e-02,8.912056684494018555e-02,-5.292429774999618530e-02,-5.239315330982208252e-02,7.602185010910034180e-02,1.190111339092254639e-01,-1.146161183714866638e-01,1.302863508462905884e-01,6.021795421838760376e-02,1.461074203252792358e-01,-1.669714748859405518e-01,-7.585303485393524170e-02,7.422646135091781616e-02,-9.450103342533111572e-02,1.463102400302886963e-01,-5.916539113968610764e-03,-5.333476513624191284e-02,-4.235358908772468567e-02,1.000693961977958679e-01,2.644440159201622009e-02,-4.453421756625175476e-02,-8.841655217111110687e-03,4.188087582588195801e-02,9.266784042119979858e-02,-9.746001660823822021e-02,1.449054330587387085e-01,-1.136853247880935669e-01,-1.364749968051910400e-01,4.437236860394477844e-02,-2.370012458413839340e-03,4.123331513255834579e-03,9.610036015510559082e-02,-5.618933215737342834e-02,-8.085326850414276123e-02,7.643755525350570679e-02,6.441076844930648804e-02,3.916640579700469971e-02,-3.558273985981941223e-02,1.093900427222251892e-01,-1.084358245134353638e-01,-8.691439032554626465e-02,-5.186433717608451843e-02,8.402752876281738281e-02,-4.505885764956474304e-02,8.462788164615631104e-02,1.213288903236389160e-01,7.571158558130264282e-02,-3.185083717107772827e-02,-1.308425962924957275e-01,1.093297824263572693e-02,6.734287738800048828e-02,-1.072240397334098816e-01,9.753681719303131104e-02,9.078302234411239624e-02,-9.886683523654937744e-02,-1.037479415535926819e-01,1.627751253545284271e-02,1.238718330860137939e-01,-9.767717123031616211e-02,4.105566442012786865e-02},
                                                {-6.469055661000311375e-04,-1.010282412171363831e-01,-1.537798345088958740e-02,9.739549458026885986e-02,-7.885180413722991943e-02,-5.063069239258766174e-02,2.728261053562164307e-02,-5.130895227193832397e-02,5.237664282321929932e-02,9.300947189331054688e-03,4.882281646132469177e-02,5.769749730825424194e-02,-9.050097316503524780e-02,3.738922998309135437e-02,-1.322635412216186523e-01,-4.659323394298553467e-02,5.856361985206604004e-02,4.267587512731552124e-02,1.004422977566719055e-01,1.008616834878921509e-01,-7.889670133590698242e-02,4.967868700623512268e-02,-7.882626727223396301e-03,-6.635850667953491211e-02,6.300657987594604492e-02,4.528370499610900879e-02,-6.852825731039047241e-02,8.476921170949935913e-02,-4.824406281113624573e-02,8.680197596549987793e-02,-1.284486055374145508e-01,-8.450482785701751709e-02,1.954712904989719391e-02,-2.529063634574413300e-02,6.959710270166397095e-02,1.275095045566558838e-01,1.029527485370635986e-01,1.241960227489471436e-01,-1.104965433478355408e-01,1.223629489541053772e-01,8.171160519123077393e-02,-1.099211797118186951e-01,1.205386295914649963e-01,2.818477153778076172e-02,-5.352771282196044922e-02,-9.809730201959609985e-02,-7.888917624950408936e-02,1.231565177440643311e-01,1.317615658044815063e-01,1.138702183961868286e-01,9.555194526910781860e-02,5.491681024432182312e-02,-1.493984013795852661e-01,5.957369133830070496e-02,7.020635902881622314e-02,1.216301321983337402e-01,8.375754952430725098e-02,3.379699075594544411e-03,-6.628823280334472656e-02,-4.496723413467407227e-02,1.600748859345912933e-02,-1.255158483982086182e-01,-7.297389209270477295e-02,-6.539084762334823608e-02},
